digraph Tree {
node [shape=box, style="filled, rounded", color="black", fontname="helvetica"] ;
edge [fontname="helvetica"] ;
0 [label="cpt_max <= 0.28\ngini = 0.47\nsamples = 282\nvalue = [287, 168]\nclass = 0", fillcolor="#f4cbad"] ;
1 [label="area_min <= 42.19\ngini = 0.28\nsamples = 185\nvalue = [257, 52]\nclass = 0", fillcolor="#ea9a61"] ;
0 -> 1 [labeldistance=2.5, labelangle=45, headlabel="True"] ;
2 [label="area_max <= 968.25\ngini = 0.11\nsamples = 158\nvalue = [254, 15]\nclass = 0", fillcolor="#e78845"] ;
1 -> 2 ;
3 [label="area_max <= 754.1\ngini = 0.07\nsamples = 153\nvalue = [253, 9]\nclass = 0", fillcolor="#e68540"] ;
2 -> 3 ;
4 [label="smth_max <= 0.18\ngini = 0.03\nsamples = 135\nvalue = [232, 3]\nclass = 0", fillcolor="#e5833c"] ;
3 -> 4 ;
5 [label="symmetry_min <= 0.02\ngini = 0.01\nsamples = 134\nvalue = [232, 1]\nclass = 0", fillcolor="#e5823a"] ;
4 -> 5 ;
6 [label="prt_max <= 32.62\ngini = 0.03\nsamples = 41\nvalue = [70, 1]\nclass = 0", fillcolor="#e5833c"] ;
5 -> 6 ;
7 [label="gini = 0.0\nsamples = 37\nvalue = [66, 0]\nclass = 0", fillcolor="#e58139"] ;
6 -> 7 ;
8 [label="concave_min <= 0.01\ngini = 0.32\nsamples = 4\nvalue = [4, 1]\nclass = 0", fillcolor="#eca06a"] ;
6 -> 8 ;
9 [label="area_max <= 552.95\ngini = 0.5\nsamples = 2\nvalue = [1, 1]\nclass = 0", fillcolor="#ffffff"] ;
8 -> 9 ;
10 [label="gini = 0.0\nsamples = 1\nvalue = [1, 0]\nclass = 0", fillcolor="#e58139"] ;
9 -> 10 ;
11 [label="gini = 0.0\nsamples = 1\nvalue = [0, 1]\nclass = 1", fillcolor="#399de5"] ;
9 -> 11 ;
12 [label="gini = 0.0\nsamples = 2\nvalue = [3, 0]\nclass = 0", fillcolor="#e58139"] ;
8 -> 12 ;
13 [label="gini = 0.0\nsamples = 93\nvalue = [162, 0]\nclass = 0", fillcolor="#e58139"] ;
5 -> 13 ;
14 [label="gini = 0.0\nsamples = 1\nvalue = [0, 2]\nclass = 1", fillcolor="#399de5"] ;
4 -> 14 ;
15 [label="smth_min <= 0.01\ngini = 0.35\nsamples = 18\nvalue = [21, 6]\nclass = 0", fillcolor="#eca572"] ;
3 -> 15 ;
16 [label="cc_min <= 0.01\ngini = 0.09\nsamples = 15\nvalue = [21, 1]\nclass = 0", fillcolor="#e68742"] ;
15 -> 16 ;
17 [label="cpt_max <= 0.16\ngini = 0.38\nsamples = 3\nvalue = [3, 1]\nclass = 0", fillcolor="#eeab7b"] ;
16 -> 17 ;
18 [label="gini = 0.0\nsamples = 2\nvalue = [3, 0]\nclass = 0", fillcolor="#e58139"] ;
17 -> 18 ;
19 [label="gini = 0.0\nsamples = 1\nvalue = [0, 1]\nclass = 1", fillcolor="#399de5"] ;
17 -> 19 ;
20 [label="gini = 0.0\nsamples = 12\nvalue = [18, 0]\nclass = 0", fillcolor="#e58139"] ;
16 -> 20 ;
21 [label="gini = 0.0\nsamples = 3\nvalue = [0, 5]\nclass = 1", fillcolor="#399de5"] ;
15 -> 21 ;
22 [label="symmetry_max <= 0.25\ngini = 0.24\nsamples = 5\nvalue = [1, 6]\nclass = 1", fillcolor="#5aade9"] ;
2 -> 22 ;
23 [label="gini = 0.0\nsamples = 1\nvalue = [1, 0]\nclass = 0", fillcolor="#e58139"] ;
22 -> 23 ;
24 [label="gini = 0.0\nsamples = 4\nvalue = [0, 6]\nclass = 1", fillcolor="#399de5"] ;
22 -> 24 ;
25 [label="frac_min <= 0.02\ngini = 0.14\nsamples = 27\nvalue = [3, 37]\nclass = 1", fillcolor="#49a5e7"] ;
1 -> 25 ;
26 [label="frac_min <= 0.0\ngini = 0.05\nsamples = 25\nvalue = [1, 37]\nclass = 1", fillcolor="#3ea0e6"] ;
25 -> 26 ;
27 [label="gini = 0.0\nsamples = 1\nvalue = [1, 0]\nclass = 0", fillcolor="#e58139"] ;
26 -> 27 ;
28 [label="gini = 0.0\nsamples = 24\nvalue = [0, 37]\nclass = 1", fillcolor="#399de5"] ;
26 -> 28 ;
29 [label="gini = 0.0\nsamples = 2\nvalue = [2, 0]\nclass = 0", fillcolor="#e58139"] ;
25 -> 29 ;
30 [label="circle_max <= 101.3\ngini = 0.33\nsamples = 97\nvalue = [30, 116]\nclass = 1", fillcolor="#6cb6ec"] ;
0 -> 30 [labeldistance=2.5, labelangle=-45, headlabel="False"] ;
31 [label="cpt_min <= 0.07\ngini = 0.08\nsamples = 16\nvalue = [22, 1]\nclass = 0", fillcolor="#e68742"] ;
30 -> 31 ;
32 [label="gini = 0.0\nsamples = 14\nvalue = [21, 0]\nclass = 0", fillcolor="#e58139"] ;
31 -> 32 ;
33 [label="prt_min <= 1.18\ngini = 0.5\nsamples = 2\nvalue = [1, 1]\nclass = 0", fillcolor="#ffffff"] ;
31 -> 33 ;
34 [label="gini = 0.0\nsamples = 1\nvalue = [0, 1]\nclass = 1", fillcolor="#399de5"] ;
33 -> 34 ;
35 [label="gini = 0.0\nsamples = 1\nvalue = [1, 0]\nclass = 0", fillcolor="#e58139"] ;
33 -> 35 ;
36 [label="circle_max <= 115.6\ngini = 0.12\nsamples = 81\nvalue = [8, 115]\nclass = 1", fillcolor="#47a4e7"] ;
30 -> 36 ;
37 [label="smth_max <= 0.14\ngini = 0.38\nsamples = 21\nvalue = [8, 23]\nclass = 1", fillcolor="#7ebfee"] ;
36 -> 37 ;
38 [label="gini = 0.0\nsamples = 7\nvalue = [8, 0]\nclass = 0", fillcolor="#e58139"] ;
37 -> 38 ;
39 [label="gini = 0.0\nsamples = 14\nvalue = [0, 23]\nclass = 1", fillcolor="#399de5"] ;
37 -> 39 ;
40 [label="gini = 0.0\nsamples = 60\nvalue = [0, 92]\nclass = 1", fillcolor="#399de5"] ;
36 -> 40 ;
}