digraph Tree {
node [shape=box, fontname="helvetica"] ;
edge [fontname="helvetica"] ;
0 [label="concave_points_worst <= 0.422\ngini = 0.457\nsamples = 280\nvalue = [294, 161]\nclass = 0"] ;
1 [label="area_se <= 0.064\ngini = 0.131\nsamples = 192\nvalue = [290, 22]\nclass = 0"] ;
0 -> 1 [labeldistance=2.5, labelangle=45, headlabel="True"] ;
2 [label="area_worst <= 0.161\ngini = 0.059\nsamples = 180\nvalue = [285, 9]\nclass = 0"] ;
1 -> 2 ;
3 [label="perimeter_worst <= -0.159\ngini = 0.041\nsamples = 177\nvalue = [283, 6]\nclass = 0"] ;
2 -> 3 ;
4 [label="texture_worst <= 1.277\ngini = 0.008\nsamples = 154\nvalue = [252.0, 1.0]\nclass = 0"] ;
3 -> 4 ;
5 [label="gini = 0.0\nsamples = 148\nvalue = [242, 0]\nclass = 0"] ;
4 -> 5 ;
6 [label="fractal_dimension_mean <= -0.398\ngini = 0.165\nsamples = 6\nvalue = [10, 1]\nclass = 0"] ;
4 -> 6 ;
7 [label="gini = 0.0\nsamples = 4\nvalue = [9, 0]\nclass = 0"] ;
6 -> 7 ;
8 [label="perimeter_mean <= -0.566\ngini = 0.5\nsamples = 2\nvalue = [1, 1]\nclass = 0"] ;
6 -> 8 ;
9 [label="gini = 0.0\nsamples = 1\nvalue = [1, 0]\nclass = 0"] ;
8 -> 9 ;
10 [label="gini = 0.0\nsamples = 1\nvalue = [0, 1]\nclass = 1"] ;
8 -> 10 ;
11 [label="texture_mean <= 0.439\ngini = 0.239\nsamples = 23\nvalue = [31, 5]\nclass = 0"] ;
3 -> 11 ;
12 [label="gini = 0.0\nsamples = 16\nvalue = [25, 0]\nclass = 0"] ;
11 -> 12 ;
13 [label="perimeter_se <= -0.397\ngini = 0.496\nsamples = 7\nvalue = [6, 5]\nclass = 0"] ;
11 -> 13 ;
14 [label="gini = 0.0\nsamples = 3\nvalue = [0, 4]\nclass = 1"] ;
13 -> 14 ;
15 [label="perimeter_se <= -0.119\ngini = 0.245\nsamples = 4\nvalue = [6, 1]\nclass = 0"] ;
13 -> 15 ;
16 [label="gini = 0.0\nsamples = 3\nvalue = [6, 0]\nclass = 0"] ;
15 -> 16 ;
17 [label="gini = 0.0\nsamples = 1\nvalue = [0, 1]\nclass = 1"] ;
15 -> 17 ;
18 [label="symmetry_se <= -0.55\ngini = 0.48\nsamples = 3\nvalue = [2, 3]\nclass = 1"] ;
2 -> 18 ;
19 [label="gini = 0.0\nsamples = 2\nvalue = [0, 3]\nclass = 1"] ;
18 -> 19 ;
20 [label="gini = 0.0\nsamples = 1\nvalue = [2, 0]\nclass = 0"] ;
18 -> 20 ;
21 [label="fractal_dimension_se <= -0.785\ngini = 0.401\nsamples = 12\nvalue = [5, 13]\nclass = 1"] ;
1 -> 21 ;
22 [label="gini = 0.0\nsamples = 1\nvalue = [3, 0]\nclass = 0"] ;
21 -> 22 ;
23 [label="fractal_dimension_se <= 0.587\ngini = 0.231\nsamples = 11\nvalue = [2, 13]\nclass = 1"] ;
21 -> 23 ;
24 [label="gini = 0.0\nsamples = 9\nvalue = [0, 13]\nclass = 1"] ;
23 -> 24 ;
25 [label="gini = 0.0\nsamples = 2\nvalue = [2, 0]\nclass = 0"] ;
23 -> 25 ;
26 [label="concavity_se <= 3.028\ngini = 0.054\nsamples = 88\nvalue = [4, 139]\nclass = 1"] ;
0 -> 26 [labeldistance=2.5, labelangle=-45, headlabel="False"] ;
27 [label="gini = 0.0\nsamples = 85\nvalue = [0, 139]\nclass = 1"] ;
26 -> 27 ;
28 [label="gini = 0.0\nsamples = 3\nvalue = [4, 0]\nclass = 0"] ;
26 -> 28 ;
}