digraph Tree {
node [shape=box, style="filled, rounded", color="black", fontname="helvetica"] ;
edge [fontname="helvetica"] ;
0 [label="concave_points_worst <= 0.42\ngini = 0.47\nsamples = 282\nvalue = [287, 168]\nclass = 0", fillcolor="#f4cbad"] ;
1 [label="concavity_worst <= -0.27\ngini = 0.16\nsamples = 189\nvalue = [284.0, 27.0]\nclass = 0", fillcolor="#e78d4c"] ;
0 -> 1 [labeldistance=2.5, labelangle=45, headlabel="True"] ;
2 [label="fractal_dimension_worst <= -1.6\ngini = 0.07\nsamples = 135\nvalue = [225, 8]\nclass = 0", fillcolor="#e68540"] ;
1 -> 2 ;
3 [label="gini = 0.0\nsamples = 1\nvalue = [0, 1]\nclass = 1", fillcolor="#399de5"] ;
2 -> 3 ;
4 [label="texture_se <= 1.59\ngini = 0.06\nsamples = 134\nvalue = [225, 7]\nclass = 0", fillcolor="#e6853f"] ;
2 -> 4 ;
5 [label="area_worst <= 0.09\ngini = 0.02\nsamples = 125\nvalue = [211, 2]\nclass = 0", fillcolor="#e5823b"] ;
4 -> 5 ;
6 [label="concavity_worst <= -0.31\ngini = 0.01\nsamples = 122\nvalue = [209, 1]\nclass = 0", fillcolor="#e5823a"] ;
5 -> 6 ;
7 [label="gini = 0.0\nsamples = 117\nvalue = [202, 0]\nclass = 0", fillcolor="#e58139"] ;
6 -> 7 ;
8 [label="fractal_dimension_mean <= -0.75\ngini = 0.22\nsamples = 5\nvalue = [7, 1]\nclass = 0", fillcolor="#e99355"] ;
6 -> 8 ;
9 [label="gini = 0.0\nsamples = 1\nvalue = [0, 1]\nclass = 1", fillcolor="#399de5"] ;
8 -> 9 ;
10 [label="gini = 0.0\nsamples = 4\nvalue = [7, 0]\nclass = 0", fillcolor="#e58139"] ;
8 -> 10 ;
11 [label="concave_points_worst <= -0.6\ngini = 0.44\nsamples = 3\nvalue = [2, 1]\nclass = 0", fillcolor="#f2c09c"] ;
5 -> 11 ;
12 [label="gini = 0.0\nsamples = 1\nvalue = [0, 1]\nclass = 1", fillcolor="#399de5"] ;
11 -> 12 ;
13 [label="gini = 0.0\nsamples = 2\nvalue = [2, 0]\nclass = 0", fillcolor="#e58139"] ;
11 -> 13 ;
14 [label="area_se <= 0.04\ngini = 0.39\nsamples = 9\nvalue = [14, 5]\nclass = 0", fillcolor="#eeae80"] ;
4 -> 14 ;
15 [label="gini = 0.0\nsamples = 8\nvalue = [14, 0]\nclass = 0", fillcolor="#e58139"] ;
14 -> 15 ;
16 [label="gini = 0.0\nsamples = 1\nvalue = [0, 5]\nclass = 1", fillcolor="#399de5"] ;
14 -> 16 ;
17 [label="radius_worst <= 0.11\ngini = 0.37\nsamples = 54\nvalue = [59, 19]\nclass = 0", fillcolor="#edaa79"] ;
1 -> 17 ;
18 [label="perimeter_se <= -0.02\ngini = 0.1\nsamples = 39\nvalue = [55, 3]\nclass = 0", fillcolor="#e68844"] ;
17 -> 18 ;
19 [label="compactness_mean <= -0.72\ngini = 0.04\nsamples = 31\nvalue = [48.0, 1.0]\nclass = 0", fillcolor="#e6843d"] ;
18 -> 19 ;
20 [label="concavity_worst <= -0.23\ngini = 0.38\nsamples = 2\nvalue = [3, 1]\nclass = 0", fillcolor="#eeab7b"] ;
19 -> 20 ;
21 [label="gini = 0.0\nsamples = 1\nvalue = [0, 1]\nclass = 1", fillcolor="#399de5"] ;
20 -> 21 ;
22 [label="gini = 0.0\nsamples = 1\nvalue = [3, 0]\nclass = 0", fillcolor="#e58139"] ;
20 -> 22 ;
23 [label="gini = 0.0\nsamples = 29\nvalue = [45, 0]\nclass = 0", fillcolor="#e58139"] ;
19 -> 23 ;
24 [label="compactness_se <= -0.04\ngini = 0.35\nsamples = 8\nvalue = [7, 2]\nclass = 0", fillcolor="#eca572"] ;
18 -> 24 ;
25 [label="gini = 0.0\nsamples = 1\nvalue = [0, 2]\nclass = 1", fillcolor="#399de5"] ;
24 -> 25 ;
26 [label="gini = 0.0\nsamples = 7\nvalue = [7, 0]\nclass = 0", fillcolor="#e58139"] ;
24 -> 26 ;
27 [label="texture_mean <= -0.81\ngini = 0.32\nsamples = 15\nvalue = [4, 16]\nclass = 1", fillcolor="#6ab6ec"] ;
17 -> 27 ;
28 [label="gini = 0.0\nsamples = 3\nvalue = [4, 0]\nclass = 0", fillcolor="#e58139"] ;
27 -> 28 ;
29 [label="gini = 0.0\nsamples = 12\nvalue = [0, 16]\nclass = 1", fillcolor="#399de5"] ;
27 -> 29 ;
30 [label="perimeter_mean <= -0.83\ngini = 0.04\nsamples = 93\nvalue = [3, 141]\nclass = 1", fillcolor="#3d9fe6"] ;
0 -> 30 [labeldistance=2.5, labelangle=-45, headlabel="False"] ;
31 [label="gini = 0.0\nsamples = 2\nvalue = [3, 0]\nclass = 0", fillcolor="#e58139"] ;
30 -> 31 ;
32 [label="gini = 0.0\nsamples = 91\nvalue = [0, 141]\nclass = 1", fillcolor="#399de5"] ;
30 -> 32 ;
}