digraph Tree {
node [shape=box, style="filled, rounded", color="black", fontname="helvetica"] ;
edge [fontname="helvetica"] ;
0 [label="Age <= -0.11\ngini = 0.5\nsamples = 819\nvalue = [650, 647]\nclass = 0", fillcolor="#fffefe"] ;
1 [label="Balance <= 0.77\ngini = 0.39\nsamples = 356\nvalue = [402, 143]\nclass = 0", fillcolor="#eeae7f"] ;
0 -> 1 [labeldistance=2.5, labelangle=45, headlabel="True"] ;
2 [label="Gender <= -0.5\ngini = 0.36\nsamples = 336\nvalue = [395, 124]\nclass = 0", fillcolor="#eda977"] ;
1 -> 2 ;
3 [label="TenureByAge <= 1.1\ngini = 0.42\nsamples = 156\nvalue = [166, 71]\nclass = 0", fillcolor="#f0b78e"] ;
2 -> 3 ;
4 [label="TenureByAge <= 0.81\ngini = 0.45\nsamples = 133\nvalue = [129, 67]\nclass = 0", fillcolor="#f3c2a0"] ;
3 -> 4 ;
5 [label="CreditScoreGivenAge <= 1.53\ngini = 0.43\nsamples = 119\nvalue = [120, 54]\nclass = 0", fillcolor="#f1ba92"] ;
4 -> 5 ;
6 [label="CreditScoreGivenAge <= 0.01\ngini = 0.45\nsamples = 104\nvalue = [100, 53]\nclass = 0", fillcolor="#f3c4a2"] ;
5 -> 6 ;
7 [label="IsActiveMember <= 0.5\ngini = 0.28\nsamples = 17\nvalue = [25, 5]\nclass = 0", fillcolor="#ea9a61"] ;
6 -> 7 ;
8 [label="EstimatedSalary <= -0.08\ngini = 0.44\nsamples = 10\nvalue = [10, 5]\nclass = 0", fillcolor="#f2c09c"] ;
7 -> 8 ;
9 [label="TenureByAge <= 0.3\ngini = 0.18\nsamples = 7\nvalue = [9, 1]\nclass = 0", fillcolor="#e88f4f"] ;
8 -> 9 ;
10 [label="gini = 0.0\nsamples = 6\nvalue = [9, 0]\nclass = 0", fillcolor="#e58139"] ;
9 -> 10 ;
11 [label="gini = 0.0\nsamples = 1\nvalue = [0, 1]\nclass = 1", fillcolor="#399de5"] ;
9 -> 11 ;
12 [label="Tenure <= 0.32\ngini = 0.32\nsamples = 3\nvalue = [1, 4]\nclass = 1", fillcolor="#6ab6ec"] ;
8 -> 12 ;
13 [label="gini = 0.0\nsamples = 2\nvalue = [0, 4]\nclass = 1", fillcolor="#399de5"] ;
12 -> 13 ;
14 [label="gini = 0.0\nsamples = 1\nvalue = [1, 0]\nclass = 0", fillcolor="#e58139"] ;
12 -> 14 ;
15 [label="gini = 0.0\nsamples = 7\nvalue = [15, 0]\nclass = 0", fillcolor="#e58139"] ;
7 -> 15 ;
16 [label="CreditScoreGivenAge <= 0.16\ngini = 0.48\nsamples = 87\nvalue = [75, 48]\nclass = 0", fillcolor="#f6d2b8"] ;
6 -> 16 ;
17 [label="TenureByAge <= -0.62\ngini = 0.43\nsamples = 8\nvalue = [4, 9]\nclass = 1", fillcolor="#91c9f1"] ;
16 -> 17 ;
18 [label="gini = 0.0\nsamples = 1\nvalue = [1, 0]\nclass = 0", fillcolor="#e58139"] ;
17 -> 18 ;
19 [label="CreditScore <= -1.14\ngini = 0.38\nsamples = 7\nvalue = [3, 9]\nclass = 1", fillcolor="#7bbeee"] ;
17 -> 19 ;
20 [label="gini = 0.0\nsamples = 1\nvalue = [1, 0]\nclass = 0", fillcolor="#e58139"] ;
19 -> 20 ;
21 [label="EstimatedSalary <= 0.24\ngini = 0.3\nsamples = 6\nvalue = [2, 9]\nclass = 1", fillcolor="#65b3eb"] ;
19 -> 21 ;
22 [label="gini = 0.0\nsamples = 4\nvalue = [0, 8]\nclass = 1", fillcolor="#399de5"] ;
21 -> 22 ;
23 [label="TenureByAge <= 0.16\ngini = 0.44\nsamples = 2\nvalue = [2, 1]\nclass = 0", fillcolor="#f2c09c"] ;
21 -> 23 ;
24 [label="gini = 0.0\nsamples = 1\nvalue = [0, 1]\nclass = 1", fillcolor="#399de5"] ;
23 -> 24 ;
25 [label="gini = 0.0\nsamples = 1\nvalue = [2, 0]\nclass = 0", fillcolor="#e58139"] ;
23 -> 25 ;
26 [label="NumOfProducts <= 0.5\ngini = 0.46\nsamples = 79\nvalue = [71, 39]\nclass = 0", fillcolor="#f3c6a6"] ;
16 -> 26 ;
27 [label="TenureByAge <= -0.21\ngini = 0.5\nsamples = 39\nvalue = [25, 27]\nclass = 1", fillcolor="#f0f8fd"] ;
26 -> 27 ;
28 [label="Balance <= 0.08\ngini = 0.39\nsamples = 12\nvalue = [14, 5]\nclass = 0", fillcolor="#eeae80"] ;
27 -> 28 ;
29 [label="IsActiveMember <= 0.5\ngini = 0.49\nsamples = 5\nvalue = [4, 5]\nclass = 1", fillcolor="#d7ebfa"] ;
28 -> 29 ;
30 [label="gini = 0.0\nsamples = 3\nvalue = [4, 0]\nclass = 0", fillcolor="#e58139"] ;
29 -> 30 ;
31 [label="gini = 0.0\nsamples = 2\nvalue = [0, 5]\nclass = 1", fillcolor="#399de5"] ;
29 -> 31 ;
32 [label="gini = 0.0\nsamples = 7\nvalue = [10, 0]\nclass = 0", fillcolor="#e58139"] ;
28 -> 32 ;
33 [label="CreditScore <= -0.13\ngini = 0.44\nsamples = 27\nvalue = [11, 22]\nclass = 1", fillcolor="#9ccef2"] ;
27 -> 33 ;
34 [label="gini = 0.0\nsamples = 5\nvalue = [0, 6]\nclass = 1", fillcolor="#399de5"] ;
33 -> 34 ;
35 [label="BalanceSalaryRatio <= -0.01\ngini = 0.48\nsamples = 22\nvalue = [11, 16]\nclass = 1", fillcolor="#c1e0f7"] ;
33 -> 35 ;
36 [label="TenureByAge <= -0.04\ngini = 0.15\nsamples = 8\nvalue = [1, 11]\nclass = 1", fillcolor="#4ba6e7"] ;
35 -> 36 ;
37 [label="EstimatedSalary <= 0.64\ngini = 0.5\nsamples = 2\nvalue = [1, 1]\nclass = 0", fillcolor="#ffffff"] ;
36 -> 37 ;
38 [label="gini = 0.0\nsamples = 1\nvalue = [1, 0]\nclass = 0", fillcolor="#e58139"] ;
37 -> 38 ;
39 [label="gini = 0.0\nsamples = 1\nvalue = [0, 1]\nclass = 1", fillcolor="#399de5"] ;
37 -> 39 ;
40 [label="gini = 0.0\nsamples = 6\nvalue = [0, 10]\nclass = 1", fillcolor="#399de5"] ;
36 -> 40 ;
41 [label="Balance <= 0.35\ngini = 0.44\nsamples = 14\nvalue = [10, 5]\nclass = 0", fillcolor="#f2c09c"] ;
35 -> 41 ;
42 [label="gini = 0.0\nsamples = 7\nvalue = [8, 0]\nclass = 0", fillcolor="#e58139"] ;
41 -> 42 ;
43 [label="BalanceSalaryRatio <= 0.58\ngini = 0.41\nsamples = 7\nvalue = [2, 5]\nclass = 1", fillcolor="#88c4ef"] ;
41 -> 43 ;
44 [label="gini = 0.0\nsamples = 1\nvalue = [1, 0]\nclass = 0", fillcolor="#e58139"] ;
43 -> 44 ;
45 [label="CreditScoreGivenAge <= 0.33\ngini = 0.28\nsamples = 6\nvalue = [1, 5]\nclass = 1", fillcolor="#61b1ea"] ;
43 -> 45 ;
46 [label="gini = 0.0\nsamples = 1\nvalue = [1, 0]\nclass = 0", fillcolor="#e58139"] ;
45 -> 46 ;
47 [label="gini = 0.0\nsamples = 5\nvalue = [0, 5]\nclass = 1", fillcolor="#399de5"] ;
45 -> 47 ;
48 [label="Tenure <= -0.32\ngini = 0.33\nsamples = 40\nvalue = [46, 12]\nclass = 0", fillcolor="#eca26d"] ;
26 -> 48 ;
49 [label="NumOfProducts <= 1.5\ngini = 0.48\nsamples = 21\nvalue = [15, 10]\nclass = 0", fillcolor="#f6d5bd"] ;
48 -> 49 ;
50 [label="CreditScore <= 0.26\ngini = 0.38\nsamples = 17\nvalue = [15, 5]\nclass = 0", fillcolor="#eeab7b"] ;
49 -> 50 ;
51 [label="EstimatedSalary <= -0.76\ngini = 0.17\nsamples = 9\nvalue = [10, 1]\nclass = 0", fillcolor="#e88e4d"] ;
50 -> 51 ;
52 [label="gini = 0.0\nsamples = 1\nvalue = [0, 1]\nclass = 1", fillcolor="#399de5"] ;
51 -> 52 ;
53 [label="gini = 0.0\nsamples = 8\nvalue = [10, 0]\nclass = 0", fillcolor="#e58139"] ;
51 -> 53 ;
54 [label="CreditScore <= 0.64\ngini = 0.49\nsamples = 8\nvalue = [5, 4]\nclass = 0", fillcolor="#fae6d7"] ;
50 -> 54 ;
55 [label="gini = 0.0\nsamples = 3\nvalue = [0, 3]\nclass = 1", fillcolor="#399de5"] ;
54 -> 55 ;
56 [label="TenureByAge <= -0.3\ngini = 0.28\nsamples = 5\nvalue = [5, 1]\nclass = 0", fillcolor="#ea9a61"] ;
54 -> 56 ;
57 [label="EstimatedSalary <= 0.26\ngini = 0.44\nsamples = 3\nvalue = [2, 1]\nclass = 0", fillcolor="#f2c09c"] ;
56 -> 57 ;
58 [label="gini = 0.0\nsamples = 2\nvalue = [2, 0]\nclass = 0", fillcolor="#e58139"] ;
57 -> 58 ;
59 [label="gini = 0.0\nsamples = 1\nvalue = [0, 1]\nclass = 1", fillcolor="#399de5"] ;
57 -> 59 ;
60 [label="gini = 0.0\nsamples = 2\nvalue = [3, 0]\nclass = 0", fillcolor="#e58139"] ;
56 -> 60 ;
61 [label="gini = 0.0\nsamples = 4\nvalue = [0, 5]\nclass = 1", fillcolor="#399de5"] ;
49 -> 61 ;
62 [label="Balance <= 0.55\ngini = 0.11\nsamples = 19\nvalue = [31, 2]\nclass = 0", fillcolor="#e78946"] ;
48 -> 62 ;
63 [label="TenureByAge <= 0.45\ngini = 0.06\nsamples = 17\nvalue = [30, 1]\nclass = 0", fillcolor="#e68540"] ;
62 -> 63 ;
64 [label="Tenure <= -0.11\ngini = 0.28\nsamples = 5\nvalue = [5, 1]\nclass = 0", fillcolor="#ea9a61"] ;
63 -> 64 ;
65 [label="gini = 0.0\nsamples = 4\nvalue = [5, 0]\nclass = 0", fillcolor="#e58139"] ;
64 -> 65 ;
66 [label="gini = 0.0\nsamples = 1\nvalue = [0, 1]\nclass = 1", fillcolor="#399de5"] ;
64 -> 66 ;
67 [label="gini = 0.0\nsamples = 12\nvalue = [25, 0]\nclass = 0", fillcolor="#e58139"] ;
63 -> 67 ;
68 [label="Balance <= 0.75\ngini = 0.5\nsamples = 2\nvalue = [1, 1]\nclass = 0", fillcolor="#ffffff"] ;
62 -> 68 ;
69 [label="gini = 0.0\nsamples = 1\nvalue = [0, 1]\nclass = 1", fillcolor="#399de5"] ;
68 -> 69 ;
70 [label="gini = 0.0\nsamples = 1\nvalue = [1, 0]\nclass = 0", fillcolor="#e58139"] ;
68 -> 70 ;
71 [label="TenureByAge <= 0.5\ngini = 0.09\nsamples = 15\nvalue = [20, 1]\nclass = 0", fillcolor="#e68743"] ;
5 -> 71 ;
72 [label="gini = 0.0\nsamples = 11\nvalue = [15, 0]\nclass = 0", fillcolor="#e58139"] ;
71 -> 72 ;
73 [label="Tenure <= 0.11\ngini = 0.28\nsamples = 4\nvalue = [5, 1]\nclass = 0", fillcolor="#ea9a61"] ;
71 -> 73 ;
74 [label="Tenure <= -0.11\ngini = 0.44\nsamples = 2\nvalue = [2, 1]\nclass = 0", fillcolor="#f2c09c"] ;
73 -> 74 ;
75 [label="gini = 0.0\nsamples = 1\nvalue = [2, 0]\nclass = 0", fillcolor="#e58139"] ;
74 -> 75 ;
76 [label="gini = 0.0\nsamples = 1\nvalue = [0, 1]\nclass = 1", fillcolor="#399de5"] ;
74 -> 76 ;
77 [label="gini = 0.0\nsamples = 2\nvalue = [3, 0]\nclass = 0", fillcolor="#e58139"] ;
73 -> 77 ;
78 [label="BalanceSalaryRatio <= 1.07\ngini = 0.48\nsamples = 14\nvalue = [9, 13]\nclass = 1", fillcolor="#c2e1f7"] ;
4 -> 78 ;
79 [label="IsActiveMember <= 0.5\ngini = 0.4\nsamples = 12\nvalue = [5, 13]\nclass = 1", fillcolor="#85c3ef"] ;
78 -> 79 ;
80 [label="NumOfProducts <= 0.5\ngini = 0.24\nsamples = 9\nvalue = [2, 12]\nclass = 1", fillcolor="#5aade9"] ;
79 -> 80 ;
81 [label="gini = 0.0\nsamples = 7\nvalue = [0, 12]\nclass = 1", fillcolor="#399de5"] ;
80 -> 81 ;
82 [label="gini = 0.0\nsamples = 2\nvalue = [2, 0]\nclass = 0", fillcolor="#e58139"] ;
80 -> 82 ;
83 [label="Balance <= -0.05\ngini = 0.38\nsamples = 3\nvalue = [3, 1]\nclass = 0", fillcolor="#eeab7b"] ;
79 -> 83 ;
84 [label="gini = 0.0\nsamples = 2\nvalue = [3, 0]\nclass = 0", fillcolor="#e58139"] ;
83 -> 84 ;
85 [label="gini = 0.0\nsamples = 1\nvalue = [0, 1]\nclass = 1", fillcolor="#399de5"] ;
83 -> 85 ;
86 [label="gini = 0.0\nsamples = 2\nvalue = [4, 0]\nclass = 0", fillcolor="#e58139"] ;
78 -> 86 ;
87 [label="Age <= -0.29\ngini = 0.18\nsamples = 23\nvalue = [37, 4]\nclass = 0", fillcolor="#e88f4e"] ;
3 -> 87 ;
88 [label="EstimatedSalary <= 0.42\ngini = 0.14\nsamples = 21\nvalue = [36, 3]\nclass = 0", fillcolor="#e78c49"] ;
87 -> 88 ;
89 [label="gini = 0.0\nsamples = 17\nvalue = [33, 0]\nclass = 0", fillcolor="#e58139"] ;
88 -> 89 ;
90 [label="Balance <= -0.13\ngini = 0.5\nsamples = 4\nvalue = [3, 3]\nclass = 0", fillcolor="#ffffff"] ;
88 -> 90 ;
91 [label="gini = 0.0\nsamples = 2\nvalue = [3, 0]\nclass = 0", fillcolor="#e58139"] ;
90 -> 91 ;
92 [label="gini = 0.0\nsamples = 2\nvalue = [0, 3]\nclass = 1", fillcolor="#399de5"] ;
90 -> 92 ;
93 [label="EstimatedSalary <= 0.2\ngini = 0.5\nsamples = 2\nvalue = [1, 1]\nclass = 0", fillcolor="#ffffff"] ;
87 -> 93 ;
94 [label="gini = 0.0\nsamples = 1\nvalue = [0, 1]\nclass = 1", fillcolor="#399de5"] ;
93 -> 94 ;
95 [label="gini = 0.0\nsamples = 1\nvalue = [1, 0]\nclass = 0", fillcolor="#e58139"] ;
93 -> 95 ;
96 [label="CreditScore <= 1.03\ngini = 0.31\nsamples = 180\nvalue = [229, 53]\nclass = 0", fillcolor="#eb9e67"] ;
2 -> 96 ;
97 [label="HasCrCard <= -0.5\ngini = 0.27\nsamples = 169\nvalue = [220, 43]\nclass = 0", fillcolor="#ea9a60"] ;
96 -> 97 ;
98 [label="NumOfProducts <= 1.5\ngini = 0.38\nsamples = 49\nvalue = [57, 20]\nclass = 0", fillcolor="#eead7e"] ;
97 -> 98 ;
99 [label="Balance <= 0.41\ngini = 0.32\nsamples = 47\nvalue = [57, 14]\nclass = 0", fillcolor="#eba06a"] ;
98 -> 99 ;
100 [label="EstimatedSalary <= 0.91\ngini = 0.24\nsamples = 37\nvalue = [50, 8]\nclass = 0", fillcolor="#e99559"] ;
99 -> 100 ;
101 [label="BalanceSalaryRatio <= -0.04\ngini = 0.17\nsamples = 34\nvalue = [49, 5]\nclass = 0", fillcolor="#e88e4d"] ;
100 -> 101 ;
102 [label="CreditScore <= -0.55\ngini = 0.24\nsamples = 21\nvalue = [30, 5]\nclass = 0", fillcolor="#e9965a"] ;
101 -> 102 ;
103 [label="CreditScore <= -1.34\ngini = 0.48\nsamples = 5\nvalue = [3, 2]\nclass = 0", fillcolor="#f6d5bd"] ;
102 -> 103 ;
104 [label="gini = 0.0\nsamples = 2\nvalue = [2, 0]\nclass = 0", fillcolor="#e58139"] ;
103 -> 104 ;
105 [label="CreditScoreGivenAge <= 1.0\ngini = 0.44\nsamples = 3\nvalue = [1, 2]\nclass = 1", fillcolor="#9ccef2"] ;
103 -> 105 ;
106 [label="gini = 0.0\nsamples = 2\nvalue = [0, 2]\nclass = 1", fillcolor="#399de5"] ;
105 -> 106 ;
107 [label="gini = 0.0\nsamples = 1\nvalue = [1, 0]\nclass = 0", fillcolor="#e58139"] ;
105 -> 107 ;
108 [label="TenureByAge <= -0.33\ngini = 0.18\nsamples = 16\nvalue = [27, 3]\nclass = 0", fillcolor="#e88f4f"] ;
102 -> 108 ;
109 [label="gini = 0.0\nsamples = 6\nvalue = [14, 0]\nclass = 0", fillcolor="#e58139"] ;
108 -> 109 ;
110 [label="CreditScore <= 0.45\ngini = 0.3\nsamples = 10\nvalue = [13, 3]\nclass = 0", fillcolor="#eb9e67"] ;
108 -> 110 ;
111 [label="gini = 0.0\nsamples = 6\nvalue = [9, 0]\nclass = 0", fillcolor="#e58139"] ;
110 -> 111 ;
112 [label="TenureByAge <= 0.67\ngini = 0.49\nsamples = 4\nvalue = [4, 3]\nclass = 0", fillcolor="#f8e0ce"] ;
110 -> 112 ;
113 [label="gini = 0.0\nsamples = 2\nvalue = [0, 3]\nclass = 1", fillcolor="#399de5"] ;
112 -> 113 ;
114 [label="gini = 0.0\nsamples = 2\nvalue = [4, 0]\nclass = 0", fillcolor="#e58139"] ;
112 -> 114 ;
115 [label="gini = 0.0\nsamples = 13\nvalue = [19, 0]\nclass = 0", fillcolor="#e58139"] ;
101 -> 115 ;
116 [label="NumOfProducts <= 0.5\ngini = 0.38\nsamples = 3\nvalue = [1, 3]\nclass = 1", fillcolor="#7bbeee"] ;
100 -> 116 ;
117 [label="gini = 0.0\nsamples = 2\nvalue = [0, 3]\nclass = 1", fillcolor="#399de5"] ;
116 -> 117 ;
118 [label="gini = 0.0\nsamples = 1\nvalue = [1, 0]\nclass = 0", fillcolor="#e58139"] ;
116 -> 118 ;
119 [label="Age <= -0.39\ngini = 0.5\nsamples = 10\nvalue = [7, 6]\nclass = 0", fillcolor="#fbede3"] ;
99 -> 119 ;
120 [label="Age <= -1.43\ngini = 0.48\nsamples = 7\nvalue = [4, 6]\nclass = 1", fillcolor="#bddef6"] ;
119 -> 120 ;
121 [label="gini = 0.0\nsamples = 1\nvalue = [2, 0]\nclass = 0", fillcolor="#e58139"] ;
120 -> 121 ;
122 [label="Tenure <= 0.32\ngini = 0.38\nsamples = 6\nvalue = [2, 6]\nclass = 1", fillcolor="#7bbeee"] ;
120 -> 122 ;
123 [label="IsActiveMember <= 0.5\ngini = 0.24\nsamples = 5\nvalue = [1, 6]\nclass = 1", fillcolor="#5aade9"] ;
122 -> 123 ;
124 [label="gini = 0.0\nsamples = 3\nvalue = [0, 5]\nclass = 1", fillcolor="#399de5"] ;
123 -> 124 ;
125 [label="CreditScoreGivenAge <= 0.26\ngini = 0.5\nsamples = 2\nvalue = [1, 1]\nclass = 0", fillcolor="#ffffff"] ;
123 -> 125 ;
126 [label="gini = 0.0\nsamples = 1\nvalue = [1, 0]\nclass = 0", fillcolor="#e58139"] ;
125 -> 126 ;
127 [label="gini = 0.0\nsamples = 1\nvalue = [0, 1]\nclass = 1", fillcolor="#399de5"] ;
125 -> 127 ;
128 [label="gini = 0.0\nsamples = 1\nvalue = [1, 0]\nclass = 0", fillcolor="#e58139"] ;
122 -> 128 ;
129 [label="gini = 0.0\nsamples = 3\nvalue = [3, 0]\nclass = 0", fillcolor="#e58139"] ;
119 -> 129 ;
130 [label="gini = 0.0\nsamples = 2\nvalue = [0, 6]\nclass = 1", fillcolor="#399de5"] ;
98 -> 130 ;
131 [label="CreditScoreGivenAge <= 0.11\ngini = 0.22\nsamples = 120\nvalue = [163, 23]\nclass = 0", fillcolor="#e99355"] ;
97 -> 131 ;
132 [label="CreditScoreGivenAge <= -0.43\ngini = 0.08\nsamples = 30\nvalue = [48, 2]\nclass = 0", fillcolor="#e68641"] ;
131 -> 132 ;
133 [label="Balance <= -0.11\ngini = 0.44\nsamples = 2\nvalue = [2, 1]\nclass = 0", fillcolor="#f2c09c"] ;
132 -> 133 ;
134 [label="gini = 0.0\nsamples = 1\nvalue = [0, 1]\nclass = 1", fillcolor="#399de5"] ;
133 -> 134 ;
135 [label="gini = 0.0\nsamples = 1\nvalue = [2, 0]\nclass = 0", fillcolor="#e58139"] ;
133 -> 135 ;
136 [label="TenureByAge <= 0.65\ngini = 0.04\nsamples = 28\nvalue = [46, 1]\nclass = 0", fillcolor="#e6843d"] ;
132 -> 136 ;
137 [label="gini = 0.0\nsamples = 22\nvalue = [34, 0]\nclass = 0", fillcolor="#e58139"] ;
136 -> 137 ;
138 [label="IsActiveMember <= 0.5\ngini = 0.14\nsamples = 6\nvalue = [12, 1]\nclass = 0", fillcolor="#e78c49"] ;
136 -> 138 ;
139 [label="CreditScoreGivenAge <= -0.11\ngini = 0.38\nsamples = 3\nvalue = [3, 1]\nclass = 0", fillcolor="#eeab7b"] ;
138 -> 139 ;
140 [label="gini = 0.0\nsamples = 1\nvalue = [0, 1]\nclass = 1", fillcolor="#399de5"] ;
139 -> 140 ;
141 [label="gini = 0.0\nsamples = 2\nvalue = [3, 0]\nclass = 0", fillcolor="#e58139"] ;
139 -> 141 ;
142 [label="gini = 0.0\nsamples = 3\nvalue = [9, 0]\nclass = 0", fillcolor="#e58139"] ;
138 -> 142 ;
143 [label="CreditScoreGivenAge <= 0.56\ngini = 0.26\nsamples = 90\nvalue = [115, 21]\nclass = 0", fillcolor="#ea985d"] ;
131 -> 143 ;
144 [label="CreditScoreGivenAge <= 0.18\ngini = 0.43\nsamples = 30\nvalue = [28, 13]\nclass = 0", fillcolor="#f1bc95"] ;
143 -> 144 ;
145 [label="gini = 0.0\nsamples = 2\nvalue = [0, 2]\nclass = 1", fillcolor="#399de5"] ;
144 -> 145 ;
146 [label="Age <= -0.54\ngini = 0.4\nsamples = 28\nvalue = [28, 11]\nclass = 0", fillcolor="#efb287"] ;
144 -> 146 ;
147 [label="NumOfProducts <= 0.5\ngini = 0.29\nsamples = 14\nvalue = [19, 4]\nclass = 0", fillcolor="#ea9c63"] ;
146 -> 147 ;
148 [label="CreditScoreGivenAge <= 0.47\ngini = 0.43\nsamples = 9\nvalue = [9, 4]\nclass = 0", fillcolor="#f1b991"] ;
147 -> 148 ;
149 [label="gini = 0.0\nsamples = 5\nvalue = [7, 0]\nclass = 0", fillcolor="#e58139"] ;
148 -> 149 ;
150 [label="CreditScore <= -0.54\ngini = 0.44\nsamples = 4\nvalue = [2, 4]\nclass = 1", fillcolor="#9ccef2"] ;
148 -> 150 ;
151 [label="TenureByAge <= 0.9\ngini = 0.32\nsamples = 3\nvalue = [1, 4]\nclass = 1", fillcolor="#6ab6ec"] ;
150 -> 151 ;
152 [label="gini = 0.0\nsamples = 2\nvalue = [0, 4]\nclass = 1", fillcolor="#399de5"] ;
151 -> 152 ;
153 [label="gini = 0.0\nsamples = 1\nvalue = [1, 0]\nclass = 0", fillcolor="#e58139"] ;
151 -> 153 ;
154 [label="gini = 0.0\nsamples = 1\nvalue = [1, 0]\nclass = 0", fillcolor="#e58139"] ;
150 -> 154 ;
155 [label="gini = 0.0\nsamples = 5\nvalue = [10, 0]\nclass = 0", fillcolor="#e58139"] ;
147 -> 155 ;
156 [label="CreditScoreGivenAge <= 0.55\ngini = 0.49\nsamples = 14\nvalue = [9, 7]\nclass = 0", fillcolor="#f9e3d3"] ;
146 -> 156 ;
157 [label="CreditScoreGivenAge <= 0.35\ngini = 0.46\nsamples = 12\nvalue = [9, 5]\nclass = 0", fillcolor="#f3c7a7"] ;
156 -> 157 ;
158 [label="NumOfProducts <= 0.5\ngini = 0.44\nsamples = 5\nvalue = [2, 4]\nclass = 1", fillcolor="#9ccef2"] ;
157 -> 158 ;
159 [label="gini = 0.0\nsamples = 2\nvalue = [0, 3]\nclass = 1", fillcolor="#399de5"] ;
158 -> 159 ;
160 [label="Tenure <= -0.42\ngini = 0.44\nsamples = 3\nvalue = [2, 1]\nclass = 0", fillcolor="#f2c09c"] ;
158 -> 160 ;
161 [label="gini = 0.0\nsamples = 1\nvalue = [1, 0]\nclass = 0", fillcolor="#e58139"] ;
160 -> 161 ;
162 [label="CreditScoreGivenAge <= 0.25\ngini = 0.5\nsamples = 2\nvalue = [1, 1]\nclass = 0", fillcolor="#ffffff"] ;
160 -> 162 ;
163 [label="gini = 0.0\nsamples = 1\nvalue = [1, 0]\nclass = 0", fillcolor="#e58139"] ;
162 -> 163 ;
164 [label="gini = 0.0\nsamples = 1\nvalue = [0, 1]\nclass = 1", fillcolor="#399de5"] ;
162 -> 164 ;
165 [label="Age <= -0.32\ngini = 0.22\nsamples = 7\nvalue = [7, 1]\nclass = 0", fillcolor="#e99355"] ;
157 -> 165 ;
166 [label="TenureByAge <= 0.51\ngini = 0.5\nsamples = 2\nvalue = [1, 1]\nclass = 0", fillcolor="#ffffff"] ;
165 -> 166 ;
167 [label="gini = 0.0\nsamples = 1\nvalue = [1, 0]\nclass = 0", fillcolor="#e58139"] ;
166 -> 167 ;
168 [label="gini = 0.0\nsamples = 1\nvalue = [0, 1]\nclass = 1", fillcolor="#399de5"] ;
166 -> 168 ;
169 [label="gini = 0.0\nsamples = 5\nvalue = [6, 0]\nclass = 0", fillcolor="#e58139"] ;
165 -> 169 ;
170 [label="gini = 0.0\nsamples = 2\nvalue = [0, 2]\nclass = 1", fillcolor="#399de5"] ;
156 -> 170 ;
171 [label="BalanceSalaryRatio <= -0.03\ngini = 0.15\nsamples = 60\nvalue = [87, 8]\nclass = 0", fillcolor="#e78d4b"] ;
143 -> 171 ;
172 [label="Tenure <= -0.11\ngini = 0.03\nsamples = 35\nvalue = [60, 1]\nclass = 0", fillcolor="#e5833c"] ;
171 -> 172 ;
173 [label="CreditScoreGivenAge <= 1.21\ngini = 0.09\nsamples = 14\nvalue = [20, 1]\nclass = 0", fillcolor="#e68743"] ;
172 -> 173 ;
174 [label="gini = 0.0\nsamples = 8\nvalue = [13, 0]\nclass = 0", fillcolor="#e58139"] ;
173 -> 174 ;
175 [label="Age <= -0.89\ngini = 0.22\nsamples = 6\nvalue = [7, 1]\nclass = 0", fillcolor="#e99355"] ;
173 -> 175 ;
176 [label="gini = 0.0\nsamples = 4\nvalue = [6, 0]\nclass = 0", fillcolor="#e58139"] ;
175 -> 176 ;
177 [label="Age <= -0.75\ngini = 0.5\nsamples = 2\nvalue = [1, 1]\nclass = 0", fillcolor="#ffffff"] ;
175 -> 177 ;
178 [label="gini = 0.0\nsamples = 1\nvalue = [0, 1]\nclass = 1", fillcolor="#399de5"] ;
177 -> 178 ;
179 [label="gini = 0.0\nsamples = 1\nvalue = [1, 0]\nclass = 0", fillcolor="#e58139"] ;
177 -> 179 ;
180 [label="gini = 0.0\nsamples = 21\nvalue = [40, 0]\nclass = 0", fillcolor="#e58139"] ;
172 -> 180 ;
181 [label="TenureByAge <= -0.45\ngini = 0.33\nsamples = 25\nvalue = [27, 7]\nclass = 0", fillcolor="#eca26c"] ;
171 -> 181 ;
182 [label="gini = 0.0\nsamples = 1\nvalue = [0, 1]\nclass = 1", fillcolor="#399de5"] ;
181 -> 182 ;
183 [label="BalanceSalaryRatio <= 0.08\ngini = 0.3\nsamples = 24\nvalue = [27, 6]\nclass = 0", fillcolor="#eb9d65"] ;
181 -> 183 ;
184 [label="CreditScore <= 0.43\ngini = 0.5\nsamples = 4\nvalue = [3, 3]\nclass = 0", fillcolor="#ffffff"] ;
183 -> 184 ;
185 [label="gini = 0.0\nsamples = 2\nvalue = [0, 3]\nclass = 1", fillcolor="#399de5"] ;
184 -> 185 ;
186 [label="gini = 0.0\nsamples = 2\nvalue = [3, 0]\nclass = 0", fillcolor="#e58139"] ;
184 -> 186 ;
187 [label="NumOfProducts <= 1.5\ngini = 0.2\nsamples = 20\nvalue = [24, 3]\nclass = 0", fillcolor="#e89152"] ;
183 -> 187 ;
188 [label="CreditScoreGivenAge <= 2.36\ngini = 0.14\nsamples = 19\nvalue = [24, 2]\nclass = 0", fillcolor="#e78c49"] ;
187 -> 188 ;
189 [label="CreditScoreGivenAge <= 0.88\ngini = 0.08\nsamples = 18\nvalue = [24, 1]\nclass = 0", fillcolor="#e68641"] ;
188 -> 189 ;
190 [label="CreditScoreGivenAge <= 0.87\ngini = 0.24\nsamples = 5\nvalue = [6, 1]\nclass = 0", fillcolor="#e9965a"] ;
189 -> 190 ;
191 [label="gini = 0.0\nsamples = 4\nvalue = [6, 0]\nclass = 0", fillcolor="#e58139"] ;
190 -> 191 ;
192 [label="gini = 0.0\nsamples = 1\nvalue = [0, 1]\nclass = 1", fillcolor="#399de5"] ;
190 -> 192 ;
193 [label="gini = 0.0\nsamples = 13\nvalue = [18, 0]\nclass = 0", fillcolor="#e58139"] ;
189 -> 193 ;
194 [label="gini = 0.0\nsamples = 1\nvalue = [0, 1]\nclass = 1", fillcolor="#399de5"] ;
188 -> 194 ;
195 [label="gini = 0.0\nsamples = 1\nvalue = [0, 1]\nclass = 1", fillcolor="#399de5"] ;
187 -> 195 ;
196 [label="CreditScore <= 1.42\ngini = 0.5\nsamples = 11\nvalue = [9, 10]\nclass = 1", fillcolor="#ebf5fc"] ;
96 -> 196 ;
197 [label="IsActiveMember <= 0.5\ngini = 0.38\nsamples = 8\nvalue = [3, 9]\nclass = 1", fillcolor="#7bbeee"] ;
196 -> 197 ;
198 [label="Age <= -1.07\ngini = 0.18\nsamples = 6\nvalue = [1, 9]\nclass = 1", fillcolor="#4fa8e8"] ;
197 -> 198 ;
199 [label="Age <= -1.18\ngini = 0.44\nsamples = 2\nvalue = [1, 2]\nclass = 1", fillcolor="#9ccef2"] ;
198 -> 199 ;
200 [label="gini = 0.0\nsamples = 1\nvalue = [0, 2]\nclass = 1", fillcolor="#399de5"] ;
199 -> 200 ;
201 [label="gini = 0.0\nsamples = 1\nvalue = [1, 0]\nclass = 0", fillcolor="#e58139"] ;
199 -> 201 ;
202 [label="gini = 0.0\nsamples = 4\nvalue = [0, 7]\nclass = 1", fillcolor="#399de5"] ;
198 -> 202 ;
203 [label="gini = 0.0\nsamples = 2\nvalue = [2, 0]\nclass = 0", fillcolor="#e58139"] ;
197 -> 203 ;
204 [label="Tenure <= 0.74\ngini = 0.24\nsamples = 3\nvalue = [6, 1]\nclass = 0", fillcolor="#e9965a"] ;
196 -> 204 ;
205 [label="gini = 0.0\nsamples = 2\nvalue = [6, 0]\nclass = 0", fillcolor="#e58139"] ;
204 -> 205 ;
206 [label="gini = 0.0\nsamples = 1\nvalue = [0, 1]\nclass = 1", fillcolor="#399de5"] ;
204 -> 206 ;
207 [label="Balance <= 1.11\ngini = 0.39\nsamples = 20\nvalue = [7, 19]\nclass = 1", fillcolor="#82c1ef"] ;
1 -> 207 ;
208 [label="CreditScoreGivenAge <= 1.34\ngini = 0.36\nsamples = 19\nvalue = [6, 19]\nclass = 1", fillcolor="#78bced"] ;
207 -> 208 ;
209 [label="BalanceSalaryRatio <= 3.33\ngini = 0.18\nsamples = 14\nvalue = [2, 18]\nclass = 1", fillcolor="#4fa8e8"] ;
208 -> 209 ;
210 [label="CreditScore <= -0.25\ngini = 0.1\nsamples = 13\nvalue = [1, 18]\nclass = 1", fillcolor="#44a2e6"] ;
209 -> 210 ;
211 [label="Age <= -0.82\ngini = 0.28\nsamples = 5\nvalue = [1, 5]\nclass = 1", fillcolor="#61b1ea"] ;
210 -> 211 ;
212 [label="gini = 0.0\nsamples = 1\nvalue = [1, 0]\nclass = 0", fillcolor="#e58139"] ;
211 -> 212 ;
213 [label="gini = 0.0\nsamples = 4\nvalue = [0, 5]\nclass = 1", fillcolor="#399de5"] ;
211 -> 213 ;
214 [label="gini = 0.0\nsamples = 8\nvalue = [0, 13]\nclass = 1", fillcolor="#399de5"] ;
210 -> 214 ;
215 [label="gini = 0.0\nsamples = 1\nvalue = [1, 0]\nclass = 0", fillcolor="#e58139"] ;
209 -> 215 ;
216 [label="Tenure <= -0.53\ngini = 0.32\nsamples = 5\nvalue = [4, 1]\nclass = 0", fillcolor="#eca06a"] ;
208 -> 216 ;
217 [label="gini = 0.0\nsamples = 2\nvalue = [2, 0]\nclass = 0", fillcolor="#e58139"] ;
216 -> 217 ;
218 [label="Age <= -1.32\ngini = 0.44\nsamples = 3\nvalue = [2, 1]\nclass = 0", fillcolor="#f2c09c"] ;
216 -> 218 ;
219 [label="gini = 0.0\nsamples = 1\nvalue = [0, 1]\nclass = 1", fillcolor="#399de5"] ;
218 -> 219 ;
220 [label="gini = 0.0\nsamples = 2\nvalue = [2, 0]\nclass = 0", fillcolor="#e58139"] ;
218 -> 220 ;
221 [label="gini = 0.0\nsamples = 1\nvalue = [1, 0]\nclass = 0", fillcolor="#e58139"] ;
207 -> 221 ;
222 [label="Balance <= 0.75\ngini = 0.44\nsamples = 463\nvalue = [248, 504]\nclass = 1", fillcolor="#9acdf2"] ;
0 -> 222 [labeldistance=2.5, labelangle=-45, headlabel="False"] ;
223 [label="IsActiveMember <= 0.5\ngini = 0.45\nsamples = 435\nvalue = [241, 461]\nclass = 1", fillcolor="#a1d0f3"] ;
222 -> 223 ;
224 [label="Age <= 0.68\ngini = 0.33\nsamples = 240\nvalue = [82, 312]\nclass = 1", fillcolor="#6db7ec"] ;
223 -> 224 ;
225 [label="BalanceSalaryRatio <= 1.63\ngini = 0.42\nsamples = 154\nvalue = [80, 185]\nclass = 1", fillcolor="#8fc7f0"] ;
224 -> 225 ;
226 [label="NumOfProducts <= 1.5\ngini = 0.44\nsamples = 138\nvalue = [77, 162]\nclass = 1", fillcolor="#97ccf1"] ;
225 -> 226 ;
227 [label="TenureByAge <= -0.06\ngini = 0.46\nsamples = 126\nvalue = [77, 141]\nclass = 1", fillcolor="#a5d3f3"] ;
226 -> 227 ;
228 [label="Balance <= 0.25\ngini = 0.37\nsamples = 61\nvalue = [25, 79]\nclass = 1", fillcolor="#78bced"] ;
227 -> 228 ;
229 [label="TenureByAge <= -0.19\ngini = 0.24\nsamples = 41\nvalue = [10, 63]\nclass = 1", fillcolor="#58ade9"] ;
228 -> 229 ;
230 [label="CreditScore <= -0.39\ngini = 0.31\nsamples = 30\nvalue = [10, 43]\nclass = 1", fillcolor="#67b4eb"] ;
229 -> 230 ;
231 [label="Balance <= 0.03\ngini = 0.5\nsamples = 9\nvalue = [7, 6]\nclass = 0", fillcolor="#fbede3"] ;
230 -> 231 ;
232 [label="CreditScore <= -0.87\ngini = 0.42\nsamples = 7\nvalue = [7, 3]\nclass = 0", fillcolor="#f0b78e"] ;
231 -> 232 ;
233 [label="HasCrCard <= -0.5\ngini = 0.48\nsamples = 5\nvalue = [2, 3]\nclass = 1", fillcolor="#bddef6"] ;
232 -> 233 ;
234 [label="gini = 0.0\nsamples = 1\nvalue = [1, 0]\nclass = 0", fillcolor="#e58139"] ;
233 -> 234 ;
235 [label="NumOfProducts <= 0.5\ngini = 0.38\nsamples = 4\nvalue = [1, 3]\nclass = 1", fillcolor="#7bbeee"] ;
233 -> 235 ;
236 [label="gini = 0.0\nsamples = 2\nvalue = [0, 2]\nclass = 1", fillcolor="#399de5"] ;
235 -> 236 ;
237 [label="TenureByAge <= -0.33\ngini = 0.5\nsamples = 2\nvalue = [1, 1]\nclass = 0", fillcolor="#ffffff"] ;
235 -> 237 ;
238 [label="gini = 0.0\nsamples = 1\nvalue = [0, 1]\nclass = 1", fillcolor="#399de5"] ;
237 -> 238 ;
239 [label="gini = 0.0\nsamples = 1\nvalue = [1, 0]\nclass = 0", fillcolor="#e58139"] ;
237 -> 239 ;
240 [label="gini = 0.0\nsamples = 2\nvalue = [5, 0]\nclass = 0", fillcolor="#e58139"] ;
232 -> 240 ;
241 [label="gini = 0.0\nsamples = 2\nvalue = [0, 3]\nclass = 1", fillcolor="#399de5"] ;
231 -> 241 ;
242 [label="HasCrCard <= -0.5\ngini = 0.14\nsamples = 21\nvalue = [3, 37]\nclass = 1", fillcolor="#49a5e7"] ;
230 -> 242 ;
243 [label="Gender <= -0.5\ngini = 0.5\nsamples = 2\nvalue = [2, 2]\nclass = 0", fillcolor="#ffffff"] ;
242 -> 243 ;
244 [label="gini = 0.0\nsamples = 1\nvalue = [2, 0]\nclass = 0", fillcolor="#e58139"] ;
243 -> 244 ;
245 [label="gini = 0.0\nsamples = 1\nvalue = [0, 2]\nclass = 1", fillcolor="#399de5"] ;
243 -> 245 ;
246 [label="EstimatedSalary <= 0.89\ngini = 0.05\nsamples = 19\nvalue = [1, 35]\nclass = 1", fillcolor="#3fa0e6"] ;
242 -> 246 ;
247 [label="gini = 0.0\nsamples = 17\nvalue = [0, 33]\nclass = 1", fillcolor="#399de5"] ;
246 -> 247 ;
248 [label="EstimatedSalary <= 1.0\ngini = 0.44\nsamples = 2\nvalue = [1, 2]\nclass = 1", fillcolor="#9ccef2"] ;
246 -> 248 ;
249 [label="gini = 0.0\nsamples = 1\nvalue = [1, 0]\nclass = 0", fillcolor="#e58139"] ;
248 -> 249 ;
250 [label="gini = 0.0\nsamples = 1\nvalue = [0, 2]\nclass = 1", fillcolor="#399de5"] ;
248 -> 250 ;
251 [label="gini = 0.0\nsamples = 11\nvalue = [0, 20]\nclass = 1", fillcolor="#399de5"] ;
229 -> 251 ;
252 [label="CreditScore <= -0.12\ngini = 0.5\nsamples = 20\nvalue = [15, 16]\nclass = 1", fillcolor="#f3f9fd"] ;
228 -> 252 ;
253 [label="CreditScore <= -0.93\ngini = 0.42\nsamples = 11\nvalue = [5, 12]\nclass = 1", fillcolor="#8bc6f0"] ;
252 -> 253 ;
254 [label="Tenure <= -0.21\ngini = 0.38\nsamples = 3\nvalue = [3, 1]\nclass = 0", fillcolor="#eeab7b"] ;
253 -> 254 ;
255 [label="gini = 0.0\nsamples = 2\nvalue = [3, 0]\nclass = 0", fillcolor="#e58139"] ;
254 -> 255 ;
256 [label="gini = 0.0\nsamples = 1\nvalue = [0, 1]\nclass = 1", fillcolor="#399de5"] ;
254 -> 256 ;
257 [label="Tenure <= -0.95\ngini = 0.26\nsamples = 8\nvalue = [2, 11]\nclass = 1", fillcolor="#5dafea"] ;
253 -> 257 ;
258 [label="gini = 0.0\nsamples = 1\nvalue = [2, 0]\nclass = 0", fillcolor="#e58139"] ;
257 -> 258 ;
259 [label="gini = 0.0\nsamples = 7\nvalue = [0, 11]\nclass = 1", fillcolor="#399de5"] ;
257 -> 259 ;
260 [label="Age <= 0.39\ngini = 0.41\nsamples = 9\nvalue = [10, 4]\nclass = 0", fillcolor="#efb388"] ;
252 -> 260 ;
261 [label="gini = 0.0\nsamples = 5\nvalue = [7, 0]\nclass = 0", fillcolor="#e58139"] ;
260 -> 261 ;
262 [label="Tenure <= -0.53\ngini = 0.49\nsamples = 4\nvalue = [3, 4]\nclass = 1", fillcolor="#cee6f8"] ;
260 -> 262 ;
263 [label="gini = 0.0\nsamples = 3\nvalue = [0, 4]\nclass = 1", fillcolor="#399de5"] ;
262 -> 263 ;
264 [label="gini = 0.0\nsamples = 1\nvalue = [3, 0]\nclass = 0", fillcolor="#e58139"] ;
262 -> 264 ;
265 [label="CreditScore <= -1.49\ngini = 0.5\nsamples = 65\nvalue = [52, 62]\nclass = 1", fillcolor="#dfeffb"] ;
227 -> 265 ;
266 [label="gini = 0.0\nsamples = 5\nvalue = [0, 11]\nclass = 1", fillcolor="#399de5"] ;
265 -> 266 ;
267 [label="TenureByAge <= 0.47\ngini = 0.5\nsamples = 60\nvalue = [52, 51]\nclass = 0", fillcolor="#fefdfb"] ;
265 -> 267 ;
268 [label="Age <= 0.32\ngini = 0.46\nsamples = 33\nvalue = [37, 21]\nclass = 0", fillcolor="#f4c9a9"] ;
267 -> 268 ;
269 [label="CreditScore <= -0.05\ngini = 0.39\nsamples = 20\nvalue = [27, 10]\nclass = 0", fillcolor="#efb082"] ;
268 -> 269 ;
270 [label="CreditScore <= -0.95\ngini = 0.15\nsamples = 9\nvalue = [22, 2]\nclass = 0", fillcolor="#e78c4b"] ;
269 -> 270 ;
271 [label="EstimatedSalary <= 0.59\ngini = 0.48\nsamples = 2\nvalue = [3, 2]\nclass = 0", fillcolor="#f6d5bd"] ;
270 -> 271 ;
272 [label="gini = 0.0\nsamples = 1\nvalue = [3, 0]\nclass = 0", fillcolor="#e58139"] ;
271 -> 272 ;
273 [label="gini = 0.0\nsamples = 1\nvalue = [0, 2]\nclass = 1", fillcolor="#399de5"] ;
271 -> 273 ;
274 [label="gini = 0.0\nsamples = 7\nvalue = [19, 0]\nclass = 0", fillcolor="#e58139"] ;
270 -> 274 ;
275 [label="TenureByAge <= 0.33\ngini = 0.47\nsamples = 11\nvalue = [5, 8]\nclass = 1", fillcolor="#b5daf5"] ;
269 -> 275 ;
276 [label="NumOfProducts <= 0.5\ngini = 0.4\nsamples = 9\nvalue = [3, 8]\nclass = 1", fillcolor="#83c2ef"] ;
275 -> 276 ;
277 [label="gini = 0.0\nsamples = 6\nvalue = [0, 8]\nclass = 1", fillcolor="#399de5"] ;
276 -> 277 ;
278 [label="gini = 0.0\nsamples = 3\nvalue = [3, 0]\nclass = 0", fillcolor="#e58139"] ;
276 -> 278 ;
279 [label="gini = 0.0\nsamples = 2\nvalue = [2, 0]\nclass = 0", fillcolor="#e58139"] ;
275 -> 279 ;
280 [label="EstimatedSalary <= -0.29\ngini = 0.5\nsamples = 13\nvalue = [10, 11]\nclass = 1", fillcolor="#edf6fd"] ;
268 -> 280 ;
281 [label="BalanceSalaryRatio <= 1.18\ngini = 0.22\nsamples = 6\nvalue = [1, 7]\nclass = 1", fillcolor="#55abe9"] ;
280 -> 281 ;
282 [label="gini = 0.0\nsamples = 5\nvalue = [0, 7]\nclass = 1", fillcolor="#399de5"] ;
281 -> 282 ;
283 [label="gini = 0.0\nsamples = 1\nvalue = [1, 0]\nclass = 0", fillcolor="#e58139"] ;
281 -> 283 ;
284 [label="CreditScoreGivenAge <= -0.85\ngini = 0.43\nsamples = 7\nvalue = [9, 4]\nclass = 0", fillcolor="#f1b991"] ;
280 -> 284 ;
285 [label="gini = 0.0\nsamples = 1\nvalue = [0, 2]\nclass = 1", fillcolor="#399de5"] ;
284 -> 285 ;
286 [label="Age <= 0.54\ngini = 0.3\nsamples = 6\nvalue = [9, 2]\nclass = 0", fillcolor="#eb9d65"] ;
284 -> 286 ;
287 [label="BalanceSalaryRatio <= 0.37\ngini = 0.44\nsamples = 4\nvalue = [4, 2]\nclass = 0", fillcolor="#f2c09c"] ;
286 -> 287 ;
288 [label="EstimatedSalary <= 0.77\ngini = 0.32\nsamples = 3\nvalue = [4, 1]\nclass = 0", fillcolor="#eca06a"] ;
287 -> 288 ;
289 [label="gini = 0.0\nsamples = 2\nvalue = [4, 0]\nclass = 0", fillcolor="#e58139"] ;
288 -> 289 ;
290 [label="gini = 0.0\nsamples = 1\nvalue = [0, 1]\nclass = 1", fillcolor="#399de5"] ;
288 -> 290 ;
291 [label="gini = 0.0\nsamples = 1\nvalue = [0, 1]\nclass = 1", fillcolor="#399de5"] ;
287 -> 291 ;
292 [label="gini = 0.0\nsamples = 2\nvalue = [5, 0]\nclass = 0", fillcolor="#e58139"] ;
286 -> 292 ;
293 [label="CreditScoreGivenAge <= -0.04\ngini = 0.44\nsamples = 27\nvalue = [15, 30]\nclass = 1", fillcolor="#9ccef2"] ;
267 -> 293 ;
294 [label="Age <= 0.39\ngini = 0.5\nsamples = 18\nvalue = [14, 13]\nclass = 0", fillcolor="#fdf6f1"] ;
293 -> 294 ;
295 [label="BalanceSalaryRatio <= 0.16\ngini = 0.39\nsamples = 14\nvalue = [14, 5]\nclass = 0", fillcolor="#eeae80"] ;
294 -> 295 ;
296 [label="Gender <= -0.5\ngini = 0.14\nsamples = 9\nvalue = [12, 1]\nclass = 0", fillcolor="#e78c49"] ;
295 -> 296 ;
297 [label="HasCrCard <= -0.5\ngini = 0.24\nsamples = 6\nvalue = [6, 1]\nclass = 0", fillcolor="#e9965a"] ;
296 -> 297 ;
298 [label="Tenure <= 0.95\ngini = 0.44\nsamples = 3\nvalue = [2, 1]\nclass = 0", fillcolor="#f2c09c"] ;
297 -> 298 ;
299 [label="gini = 0.0\nsamples = 2\nvalue = [2, 0]\nclass = 0", fillcolor="#e58139"] ;
298 -> 299 ;
300 [label="gini = 0.0\nsamples = 1\nvalue = [0, 1]\nclass = 1", fillcolor="#399de5"] ;
298 -> 300 ;
301 [label="gini = 0.0\nsamples = 3\nvalue = [4, 0]\nclass = 0", fillcolor="#e58139"] ;
297 -> 301 ;
302 [label="gini = 0.0\nsamples = 3\nvalue = [6, 0]\nclass = 0", fillcolor="#e58139"] ;
296 -> 302 ;
303 [label="Balance <= 0.43\ngini = 0.44\nsamples = 5\nvalue = [2, 4]\nclass = 1", fillcolor="#9ccef2"] ;
295 -> 303 ;
304 [label="gini = 0.0\nsamples = 1\nvalue = [1, 0]\nclass = 0", fillcolor="#e58139"] ;
303 -> 304 ;
305 [label="EstimatedSalary <= -0.4\ngini = 0.32\nsamples = 4\nvalue = [1, 4]\nclass = 1", fillcolor="#6ab6ec"] ;
303 -> 305 ;
306 [label="gini = 0.0\nsamples = 1\nvalue = [1, 0]\nclass = 0", fillcolor="#e58139"] ;
305 -> 306 ;
307 [label="gini = 0.0\nsamples = 3\nvalue = [0, 4]\nclass = 1", fillcolor="#399de5"] ;
305 -> 307 ;
308 [label="gini = 0.0\nsamples = 4\nvalue = [0, 8]\nclass = 1", fillcolor="#399de5"] ;
294 -> 308 ;
309 [label="EstimatedSalary <= 0.13\ngini = 0.1\nsamples = 9\nvalue = [1, 17]\nclass = 1", fillcolor="#45a3e7"] ;
293 -> 309 ;
310 [label="NumOfProducts <= 0.5\ngini = 0.38\nsamples = 2\nvalue = [1, 3]\nclass = 1", fillcolor="#7bbeee"] ;
309 -> 310 ;
311 [label="gini = 0.0\nsamples = 1\nvalue = [1, 0]\nclass = 0", fillcolor="#e58139"] ;
310 -> 311 ;
312 [label="gini = 0.0\nsamples = 1\nvalue = [0, 3]\nclass = 1", fillcolor="#399de5"] ;
310 -> 312 ;
313 [label="gini = 0.0\nsamples = 7\nvalue = [0, 14]\nclass = 1", fillcolor="#399de5"] ;
309 -> 313 ;
314 [label="gini = 0.0\nsamples = 12\nvalue = [0, 21]\nclass = 1", fillcolor="#399de5"] ;
226 -> 314 ;
315 [label="EstimatedSalary <= -0.84\ngini = 0.2\nsamples = 16\nvalue = [3, 23]\nclass = 1", fillcolor="#53aae8"] ;
225 -> 315 ;
316 [label="HasCrCard <= -0.5\ngini = 0.44\nsamples = 3\nvalue = [2, 1]\nclass = 0", fillcolor="#f2c09c"] ;
315 -> 316 ;
317 [label="gini = 0.0\nsamples = 1\nvalue = [0, 1]\nclass = 1", fillcolor="#399de5"] ;
316 -> 317 ;
318 [label="gini = 0.0\nsamples = 2\nvalue = [2, 0]\nclass = 0", fillcolor="#e58139"] ;
316 -> 318 ;
319 [label="BalanceSalaryRatio <= 3.36\ngini = 0.08\nsamples = 13\nvalue = [1, 22]\nclass = 1", fillcolor="#42a1e6"] ;
315 -> 319 ;
320 [label="gini = 0.0\nsamples = 11\nvalue = [0, 21]\nclass = 1", fillcolor="#399de5"] ;
319 -> 320 ;
321 [label="TenureByAge <= -0.12\ngini = 0.5\nsamples = 2\nvalue = [1, 1]\nclass = 0", fillcolor="#ffffff"] ;
319 -> 321 ;
322 [label="gini = 0.0\nsamples = 1\nvalue = [0, 1]\nclass = 1", fillcolor="#399de5"] ;
321 -> 322 ;
323 [label="gini = 0.0\nsamples = 1\nvalue = [1, 0]\nclass = 0", fillcolor="#e58139"] ;
321 -> 323 ;
324 [label="Age <= 0.96\ngini = 0.03\nsamples = 86\nvalue = [2, 127]\nclass = 1", fillcolor="#3c9fe5"] ;
224 -> 324 ;
325 [label="EstimatedSalary <= 0.92\ngini = 0.06\nsamples = 36\nvalue = [2, 58]\nclass = 1", fillcolor="#40a0e6"] ;
324 -> 325 ;
326 [label="Tenure <= -0.74\ngini = 0.04\nsamples = 32\nvalue = [1, 55]\nclass = 1", fillcolor="#3d9fe5"] ;
325 -> 326 ;
327 [label="CreditScore <= -0.49\ngini = 0.32\nsamples = 3\nvalue = [1, 4]\nclass = 1", fillcolor="#6ab6ec"] ;
326 -> 327 ;
328 [label="gini = 0.0\nsamples = 1\nvalue = [0, 3]\nclass = 1", fillcolor="#399de5"] ;
327 -> 328 ;
329 [label="BalanceSalaryRatio <= -0.22\ngini = 0.5\nsamples = 2\nvalue = [1, 1]\nclass = 0", fillcolor="#ffffff"] ;
327 -> 329 ;
330 [label="gini = 0.0\nsamples = 1\nvalue = [0, 1]\nclass = 1", fillcolor="#399de5"] ;
329 -> 330 ;
331 [label="gini = 0.0\nsamples = 1\nvalue = [1, 0]\nclass = 0", fillcolor="#e58139"] ;
329 -> 331 ;
332 [label="gini = 0.0\nsamples = 29\nvalue = [0, 51]\nclass = 1", fillcolor="#399de5"] ;
326 -> 332 ;
333 [label="CreditScore <= 0.72\ngini = 0.38\nsamples = 4\nvalue = [1, 3]\nclass = 1", fillcolor="#7bbeee"] ;
325 -> 333 ;
334 [label="gini = 0.0\nsamples = 3\nvalue = [0, 3]\nclass = 1", fillcolor="#399de5"] ;
333 -> 334 ;
335 [label="gini = 0.0\nsamples = 1\nvalue = [1, 0]\nclass = 0", fillcolor="#e58139"] ;
333 -> 335 ;
336 [label="gini = 0.0\nsamples = 50\nvalue = [0, 69]\nclass = 1", fillcolor="#399de5"] ;
324 -> 336 ;
337 [label="Age <= 1.75\ngini = 0.5\nsamples = 195\nvalue = [159, 149]\nclass = 0", fillcolor="#fdf7f3"] ;
223 -> 337 ;
338 [label="Age <= 0.39\ngini = 0.5\nsamples = 178\nvalue = [133, 147]\nclass = 1", fillcolor="#ecf6fd"] ;
337 -> 338 ;
339 [label="TenureByAge <= 0.36\ngini = 0.48\nsamples = 76\nvalue = [71, 46]\nclass = 0", fillcolor="#f6d3b9"] ;
338 -> 339 ;
340 [label="CreditScore <= -1.24\ngini = 0.41\nsamples = 55\nvalue = [59, 24]\nclass = 0", fillcolor="#f0b48a"] ;
339 -> 340 ;
341 [label="gini = 0.0\nsamples = 2\nvalue = [0, 3]\nclass = 1", fillcolor="#399de5"] ;
340 -> 341 ;
342 [label="Balance <= -0.02\ngini = 0.39\nsamples = 53\nvalue = [59, 21]\nclass = 0", fillcolor="#eeae7f"] ;
340 -> 342 ;
343 [label="CreditScoreGivenAge <= 0.14\ngini = 0.47\nsamples = 26\nvalue = [24, 15]\nclass = 0", fillcolor="#f5d0b5"] ;
342 -> 343 ;
344 [label="Age <= -0.04\ngini = 0.42\nsamples = 23\nvalue = [24, 10]\nclass = 0", fillcolor="#f0b58b"] ;
343 -> 344 ;
345 [label="gini = 0.0\nsamples = 2\nvalue = [2, 0]\nclass = 0", fillcolor="#e58139"] ;
344 -> 345 ;
346 [label="TenureByAge <= -0.77\ngini = 0.43\nsamples = 21\nvalue = [22, 10]\nclass = 0", fillcolor="#f1ba93"] ;
344 -> 346 ;
347 [label="gini = 0.0\nsamples = 3\nvalue = [0, 4]\nclass = 1", fillcolor="#399de5"] ;
346 -> 347 ;
348 [label="HasCrCard <= -0.5\ngini = 0.34\nsamples = 18\nvalue = [22, 6]\nclass = 0", fillcolor="#eca36f"] ;
346 -> 348 ;
349 [label="EstimatedSalary <= 0.35\ngini = 0.48\nsamples = 4\nvalue = [3, 2]\nclass = 0", fillcolor="#f6d5bd"] ;
348 -> 349 ;
350 [label="EstimatedSalary <= -0.09\ngini = 0.44\nsamples = 3\nvalue = [1, 2]\nclass = 1", fillcolor="#9ccef2"] ;
349 -> 350 ;
351 [label="gini = 0.0\nsamples = 1\nvalue = [1, 0]\nclass = 0", fillcolor="#e58139"] ;
350 -> 351 ;
352 [label="gini = 0.0\nsamples = 2\nvalue = [0, 2]\nclass = 1", fillcolor="#399de5"] ;
350 -> 352 ;
353 [label="gini = 0.0\nsamples = 1\nvalue = [2, 0]\nclass = 0", fillcolor="#e58139"] ;
349 -> 353 ;
354 [label="Tenure <= -0.74\ngini = 0.29\nsamples = 14\nvalue = [19, 4]\nclass = 0", fillcolor="#ea9c63"] ;
348 -> 354 ;
355 [label="gini = 0.0\nsamples = 1\nvalue = [0, 1]\nclass = 1", fillcolor="#399de5"] ;
354 -> 355 ;
356 [label="CreditScoreGivenAge <= -0.3\ngini = 0.24\nsamples = 13\nvalue = [19, 3]\nclass = 0", fillcolor="#e99558"] ;
354 -> 356 ;
357 [label="Age <= 0.04\ngini = 0.44\nsamples = 3\nvalue = [4, 2]\nclass = 0", fillcolor="#f2c09c"] ;
356 -> 357 ;
358 [label="gini = 0.0\nsamples = 2\nvalue = [4, 0]\nclass = 0", fillcolor="#e58139"] ;
357 -> 358 ;
359 [label="gini = 0.0\nsamples = 1\nvalue = [0, 2]\nclass = 1", fillcolor="#399de5"] ;
357 -> 359 ;
360 [label="CreditScore <= 0.24\ngini = 0.12\nsamples = 10\nvalue = [15, 1]\nclass = 0", fillcolor="#e78946"] ;
356 -> 360 ;
361 [label="gini = 0.0\nsamples = 7\nvalue = [9, 0]\nclass = 0", fillcolor="#e58139"] ;
360 -> 361 ;
362 [label="Gender <= -0.5\ngini = 0.24\nsamples = 3\nvalue = [6, 1]\nclass = 0", fillcolor="#e9965a"] ;
360 -> 362 ;
363 [label="gini = 0.0\nsamples = 1\nvalue = [4, 0]\nclass = 0", fillcolor="#e58139"] ;
362 -> 363 ;
364 [label="CreditScoreGivenAge <= 0.05\ngini = 0.44\nsamples = 2\nvalue = [2, 1]\nclass = 0", fillcolor="#f2c09c"] ;
362 -> 364 ;
365 [label="gini = 0.0\nsamples = 1\nvalue = [0, 1]\nclass = 1", fillcolor="#399de5"] ;
364 -> 365 ;
366 [label="gini = 0.0\nsamples = 1\nvalue = [2, 0]\nclass = 0", fillcolor="#e58139"] ;
364 -> 366 ;
367 [label="gini = 0.0\nsamples = 3\nvalue = [0, 5]\nclass = 1", fillcolor="#399de5"] ;
343 -> 367 ;
368 [label="EstimatedSalary <= 0.47\ngini = 0.25\nsamples = 27\nvalue = [35, 6]\nclass = 0", fillcolor="#e9975b"] ;
342 -> 368 ;
369 [label="Balance <= 0.48\ngini = 0.16\nsamples = 22\nvalue = [31, 3]\nclass = 0", fillcolor="#e88d4c"] ;
368 -> 369 ;
370 [label="Tenure <= -0.95\ngini = 0.06\nsamples = 18\nvalue = [29, 1]\nclass = 0", fillcolor="#e68540"] ;
369 -> 370 ;
371 [label="BalanceSalaryRatio <= 1.29\ngini = 0.32\nsamples = 3\nvalue = [4, 1]\nclass = 0", fillcolor="#eca06a"] ;
370 -> 371 ;
372 [label="Age <= 0.14\ngini = 0.5\nsamples = 2\nvalue = [1, 1]\nclass = 0", fillcolor="#ffffff"] ;
371 -> 372 ;
373 [label="gini = 0.0\nsamples = 1\nvalue = [1, 0]\nclass = 0", fillcolor="#e58139"] ;
372 -> 373 ;
374 [label="gini = 0.0\nsamples = 1\nvalue = [0, 1]\nclass = 1", fillcolor="#399de5"] ;
372 -> 374 ;
375 [label="gini = 0.0\nsamples = 1\nvalue = [3, 0]\nclass = 0", fillcolor="#e58139"] ;
371 -> 375 ;
376 [label="gini = 0.0\nsamples = 15\nvalue = [25, 0]\nclass = 0", fillcolor="#e58139"] ;
370 -> 376 ;
377 [label="Balance <= 0.48\ngini = 0.5\nsamples = 4\nvalue = [2, 2]\nclass = 0", fillcolor="#ffffff"] ;
369 -> 377 ;
378 [label="gini = 0.0\nsamples = 1\nvalue = [0, 1]\nclass = 1", fillcolor="#399de5"] ;
377 -> 378 ;
379 [label="CreditScore <= 0.24\ngini = 0.44\nsamples = 3\nvalue = [2, 1]\nclass = 0", fillcolor="#f2c09c"] ;
377 -> 379 ;
380 [label="gini = 0.0\nsamples = 1\nvalue = [0, 1]\nclass = 1", fillcolor="#399de5"] ;
379 -> 380 ;
381 [label="gini = 0.0\nsamples = 2\nvalue = [2, 0]\nclass = 0", fillcolor="#e58139"] ;
379 -> 381 ;
382 [label="HasCrCard <= -0.5\ngini = 0.49\nsamples = 5\nvalue = [4, 3]\nclass = 0", fillcolor="#f8e0ce"] ;
368 -> 382 ;
383 [label="EstimatedSalary <= 0.65\ngini = 0.44\nsamples = 3\nvalue = [2, 1]\nclass = 0", fillcolor="#f2c09c"] ;
382 -> 383 ;
384 [label="gini = 0.0\nsamples = 1\nvalue = [0, 1]\nclass = 1", fillcolor="#399de5"] ;
383 -> 384 ;
385 [label="gini = 0.0\nsamples = 2\nvalue = [2, 0]\nclass = 0", fillcolor="#e58139"] ;
383 -> 385 ;
386 [label="Balance <= 0.52\ngini = 0.5\nsamples = 2\nvalue = [2, 2]\nclass = 0", fillcolor="#ffffff"] ;
382 -> 386 ;
387 [label="gini = 0.0\nsamples = 1\nvalue = [0, 2]\nclass = 1", fillcolor="#399de5"] ;
386 -> 387 ;
388 [label="gini = 0.0\nsamples = 1\nvalue = [2, 0]\nclass = 0", fillcolor="#e58139"] ;
386 -> 388 ;
389 [label="NumOfProducts <= 0.5\ngini = 0.46\nsamples = 21\nvalue = [12, 22]\nclass = 1", fillcolor="#a5d2f3"] ;
339 -> 389 ;
390 [label="EstimatedSalary <= -0.58\ngini = 0.33\nsamples = 13\nvalue = [5, 19]\nclass = 1", fillcolor="#6db7ec"] ;
389 -> 390 ;
391 [label="CreditScoreGivenAge <= 0.47\ngini = 0.49\nsamples = 4\nvalue = [4, 5]\nclass = 1", fillcolor="#d7ebfa"] ;
390 -> 391 ;
392 [label="Gender <= -0.5\ngini = 0.28\nsamples = 3\nvalue = [1, 5]\nclass = 1", fillcolor="#61b1ea"] ;
391 -> 392 ;
393 [label="Age <= 0.07\ngini = 0.5\nsamples = 2\nvalue = [1, 1]\nclass = 0", fillcolor="#ffffff"] ;
392 -> 393 ;
394 [label="gini = 0.0\nsamples = 1\nvalue = [1, 0]\nclass = 0", fillcolor="#e58139"] ;
393 -> 394 ;
395 [label="gini = 0.0\nsamples = 1\nvalue = [0, 1]\nclass = 1", fillcolor="#399de5"] ;
393 -> 395 ;
396 [label="gini = 0.0\nsamples = 1\nvalue = [0, 4]\nclass = 1", fillcolor="#399de5"] ;
392 -> 396 ;
397 [label="gini = 0.0\nsamples = 1\nvalue = [3, 0]\nclass = 0", fillcolor="#e58139"] ;
391 -> 397 ;
398 [label="HasCrCard <= -0.5\ngini = 0.12\nsamples = 9\nvalue = [1, 14]\nclass = 1", fillcolor="#47a4e7"] ;
390 -> 398 ;
399 [label="gini = 0.0\nsamples = 5\nvalue = [0, 9]\nclass = 1", fillcolor="#399de5"] ;
398 -> 399 ;
400 [label="Gender <= -0.5\ngini = 0.28\nsamples = 4\nvalue = [1, 5]\nclass = 1", fillcolor="#61b1ea"] ;
398 -> 400 ;
401 [label="gini = 0.0\nsamples = 3\nvalue = [0, 5]\nclass = 1", fillcolor="#399de5"] ;
400 -> 401 ;
402 [label="gini = 0.0\nsamples = 1\nvalue = [1, 0]\nclass = 0", fillcolor="#e58139"] ;
400 -> 402 ;
403 [label="CreditScoreGivenAge <= -0.53\ngini = 0.42\nsamples = 8\nvalue = [7, 3]\nclass = 0", fillcolor="#f0b78e"] ;
389 -> 403 ;
404 [label="gini = 0.0\nsamples = 1\nvalue = [0, 2]\nclass = 1", fillcolor="#399de5"] ;
403 -> 404 ;
405 [label="CreditScore <= -0.12\ngini = 0.22\nsamples = 7\nvalue = [7, 1]\nclass = 0", fillcolor="#e99355"] ;
403 -> 405 ;
406 [label="Tenure <= 0.84\ngini = 0.5\nsamples = 2\nvalue = [1, 1]\nclass = 0", fillcolor="#ffffff"] ;
405 -> 406 ;
407 [label="gini = 0.0\nsamples = 1\nvalue = [1, 0]\nclass = 0", fillcolor="#e58139"] ;
406 -> 407 ;
408 [label="gini = 0.0\nsamples = 1\nvalue = [0, 1]\nclass = 1", fillcolor="#399de5"] ;
406 -> 408 ;
409 [label="gini = 0.0\nsamples = 5\nvalue = [6, 0]\nclass = 0", fillcolor="#e58139"] ;
405 -> 409 ;
410 [label="Gender <= -0.5\ngini = 0.47\nsamples = 102\nvalue = [62, 101]\nclass = 1", fillcolor="#b3d9f5"] ;
338 -> 410 ;
411 [label="EstimatedSalary <= 0.98\ngini = 0.35\nsamples = 48\nvalue = [18, 63]\nclass = 1", fillcolor="#72b9ec"] ;
410 -> 411 ;
412 [label="BalanceSalaryRatio <= 1.49\ngini = 0.33\nsamples = 47\nvalue = [17, 63]\nclass = 1", fillcolor="#6eb7ec"] ;
411 -> 412 ;
413 [label="Tenure <= 0.32\ngini = 0.28\nsamples = 42\nvalue = [12, 60]\nclass = 1", fillcolor="#61b1ea"] ;
412 -> 413 ;
414 [label="TenureByAge <= -0.7\ngini = 0.12\nsamples = 26\nvalue = [3, 42]\nclass = 1", fillcolor="#47a4e7"] ;
413 -> 414 ;
415 [label="Age <= 1.39\ngini = 0.28\nsamples = 8\nvalue = [2, 10]\nclass = 1", fillcolor="#61b1ea"] ;
414 -> 415 ;
416 [label="gini = 0.0\nsamples = 7\nvalue = [0, 10]\nclass = 1", fillcolor="#399de5"] ;
415 -> 416 ;
417 [label="gini = 0.0\nsamples = 1\nvalue = [2, 0]\nclass = 0", fillcolor="#e58139"] ;
415 -> 417 ;
418 [label="Balance <= -0.42\ngini = 0.06\nsamples = 18\nvalue = [1, 32]\nclass = 1", fillcolor="#3fa0e6"] ;
414 -> 418 ;
419 [label="TenureByAge <= -0.13\ngini = 0.1\nsamples = 9\nvalue = [1, 17]\nclass = 1", fillcolor="#45a3e7"] ;
418 -> 419 ;
420 [label="gini = 0.0\nsamples = 8\nvalue = [0, 17]\nclass = 1", fillcolor="#399de5"] ;
419 -> 420 ;
421 [label="gini = 0.0\nsamples = 1\nvalue = [1, 0]\nclass = 0", fillcolor="#e58139"] ;
419 -> 421 ;
422 [label="gini = 0.0\nsamples = 9\nvalue = [0, 15]\nclass = 1", fillcolor="#399de5"] ;
418 -> 422 ;
423 [label="CreditScore <= -0.04\ngini = 0.44\nsamples = 16\nvalue = [9, 18]\nclass = 1", fillcolor="#9ccef2"] ;
413 -> 423 ;
424 [label="gini = 0.0\nsamples = 10\nvalue = [0, 14]\nclass = 1", fillcolor="#399de5"] ;
423 -> 424 ;
425 [label="CreditScoreGivenAge <= -0.33\ngini = 0.43\nsamples = 6\nvalue = [9, 4]\nclass = 0", fillcolor="#f1b991"] ;
423 -> 425 ;
426 [label="gini = 0.0\nsamples = 3\nvalue = [8, 0]\nclass = 0", fillcolor="#e58139"] ;
425 -> 426 ;
427 [label="HasCrCard <= -0.5\ngini = 0.32\nsamples = 3\nvalue = [1, 4]\nclass = 1", fillcolor="#6ab6ec"] ;
425 -> 427 ;
428 [label="gini = 0.0\nsamples = 1\nvalue = [0, 3]\nclass = 1", fillcolor="#399de5"] ;
427 -> 428 ;
429 [label="Tenure <= 0.63\ngini = 0.5\nsamples = 2\nvalue = [1, 1]\nclass = 0", fillcolor="#ffffff"] ;
427 -> 429 ;
430 [label="gini = 0.0\nsamples = 1\nvalue = [1, 0]\nclass = 0", fillcolor="#e58139"] ;
429 -> 430 ;
431 [label="gini = 0.0\nsamples = 1\nvalue = [0, 1]\nclass = 1", fillcolor="#399de5"] ;
429 -> 431 ;
432 [label="TenureByAge <= -0.76\ngini = 0.47\nsamples = 5\nvalue = [5, 3]\nclass = 0", fillcolor="#f5cdb0"] ;
412 -> 432 ;
433 [label="gini = 0.0\nsamples = 1\nvalue = [0, 1]\nclass = 1", fillcolor="#399de5"] ;
432 -> 433 ;
434 [label="CreditScoreGivenAge <= -0.35\ngini = 0.41\nsamples = 4\nvalue = [5, 2]\nclass = 0", fillcolor="#efb388"] ;
432 -> 434 ;
435 [label="gini = 0.0\nsamples = 3\nvalue = [5, 0]\nclass = 0", fillcolor="#e58139"] ;
434 -> 435 ;
436 [label="gini = 0.0\nsamples = 1\nvalue = [0, 2]\nclass = 1", fillcolor="#399de5"] ;
434 -> 436 ;
437 [label="gini = 0.0\nsamples = 1\nvalue = [1, 0]\nclass = 0", fillcolor="#e58139"] ;
411 -> 437 ;
438 [label="Age <= 0.75\ngini = 0.5\nsamples = 54\nvalue = [44, 38]\nclass = 0", fillcolor="#fbeee4"] ;
410 -> 438 ;
439 [label="CreditScore <= -1.04\ngini = 0.46\nsamples = 22\nvalue = [10, 18]\nclass = 1", fillcolor="#a7d3f3"] ;
438 -> 439 ;
440 [label="gini = 0.0\nsamples = 1\nvalue = [2, 0]\nclass = 0", fillcolor="#e58139"] ;
439 -> 440 ;
441 [label="Balance <= -0.28\ngini = 0.43\nsamples = 21\nvalue = [8, 18]\nclass = 1", fillcolor="#91c9f1"] ;
439 -> 441 ;
442 [label="TenureByAge <= -0.79\ngini = 0.5\nsamples = 11\nvalue = [7, 7]\nclass = 0", fillcolor="#ffffff"] ;
441 -> 442 ;
443 [label="gini = 0.0\nsamples = 1\nvalue = [0, 2]\nclass = 1", fillcolor="#399de5"] ;
442 -> 443 ;
444 [label="Tenure <= 0.53\ngini = 0.49\nsamples = 10\nvalue = [7, 5]\nclass = 0", fillcolor="#f8dbc6"] ;
442 -> 444 ;
445 [label="CreditScoreGivenAge <= -0.57\ngini = 0.42\nsamples = 8\nvalue = [7, 3]\nclass = 0", fillcolor="#f0b78e"] ;
444 -> 445 ;
446 [label="gini = 0.0\nsamples = 2\nvalue = [0, 2]\nclass = 1", fillcolor="#399de5"] ;
445 -> 446 ;
447 [label="Tenure <= 0.0\ngini = 0.22\nsamples = 6\nvalue = [7, 1]\nclass = 0", fillcolor="#e99355"] ;
445 -> 447 ;
448 [label="gini = 0.0\nsamples = 4\nvalue = [6, 0]\nclass = 0", fillcolor="#e58139"] ;
447 -> 448 ;
449 [label="EstimatedSalary <= -0.5\ngini = 0.5\nsamples = 2\nvalue = [1, 1]\nclass = 0", fillcolor="#ffffff"] ;
447 -> 449 ;
450 [label="gini = 0.0\nsamples = 1\nvalue = [1, 0]\nclass = 0", fillcolor="#e58139"] ;
449 -> 450 ;
451 [label="gini = 0.0\nsamples = 1\nvalue = [0, 1]\nclass = 1", fillcolor="#399de5"] ;
449 -> 451 ;
452 [label="gini = 0.0\nsamples = 2\nvalue = [0, 2]\nclass = 1", fillcolor="#399de5"] ;
444 -> 452 ;
453 [label="Balance <= 0.48\ngini = 0.15\nsamples = 10\nvalue = [1, 11]\nclass = 1", fillcolor="#4ba6e7"] ;
441 -> 453 ;
454 [label="gini = 0.0\nsamples = 8\nvalue = [0, 10]\nclass = 1", fillcolor="#399de5"] ;
453 -> 454 ;
455 [label="CreditScoreGivenAge <= -0.29\ngini = 0.5\nsamples = 2\nvalue = [1, 1]\nclass = 0", fillcolor="#ffffff"] ;
453 -> 455 ;
456 [label="gini = 0.0\nsamples = 1\nvalue = [0, 1]\nclass = 1", fillcolor="#399de5"] ;
455 -> 456 ;
457 [label="gini = 0.0\nsamples = 1\nvalue = [1, 0]\nclass = 0", fillcolor="#e58139"] ;
455 -> 457 ;
458 [label="NumOfProducts <= 1.5\ngini = 0.47\nsamples = 32\nvalue = [34, 20]\nclass = 0", fillcolor="#f4cbad"] ;
438 -> 458 ;
459 [label="Balance <= 0.59\ngini = 0.44\nsamples = 28\nvalue = [34, 16]\nclass = 0", fillcolor="#f1bc96"] ;
458 -> 459 ;
460 [label="NumOfProducts <= 0.5\ngini = 0.48\nsamples = 25\nvalue = [23, 16]\nclass = 0", fillcolor="#f7d9c3"] ;
459 -> 460 ;
461 [label="BalanceSalaryRatio <= -0.2\ngini = 0.47\nsamples = 14\nvalue = [8, 13]\nclass = 1", fillcolor="#b3d9f5"] ;
460 -> 461 ;
462 [label="CreditScoreGivenAge <= -0.17\ngini = 0.34\nsamples = 8\nvalue = [3, 11]\nclass = 1", fillcolor="#6fb8ec"] ;
461 -> 462 ;
463 [label="gini = 0.0\nsamples = 7\nvalue = [0, 11]\nclass = 1", fillcolor="#399de5"] ;
462 -> 463 ;
464 [label="gini = 0.0\nsamples = 1\nvalue = [3, 0]\nclass = 0", fillcolor="#e58139"] ;
462 -> 464 ;
465 [label="BalanceSalaryRatio <= 1.31\ngini = 0.41\nsamples = 6\nvalue = [5, 2]\nclass = 0", fillcolor="#efb388"] ;
461 -> 465 ;
466 [label="gini = 0.0\nsamples = 4\nvalue = [5, 0]\nclass = 0", fillcolor="#e58139"] ;
465 -> 466 ;
467 [label="gini = 0.0\nsamples = 2\nvalue = [0, 2]\nclass = 1", fillcolor="#399de5"] ;
465 -> 467 ;
468 [label="HasCrCard <= -0.5\ngini = 0.28\nsamples = 11\nvalue = [15, 3]\nclass = 0", fillcolor="#ea9a61"] ;
460 -> 468 ;
469 [label="gini = 0.0\nsamples = 4\nvalue = [8, 0]\nclass = 0", fillcolor="#e58139"] ;
468 -> 469 ;
470 [label="BalanceSalaryRatio <= -0.18\ngini = 0.42\nsamples = 7\nvalue = [7, 3]\nclass = 0", fillcolor="#f0b78e"] ;
468 -> 470 ;
471 [label="gini = 0.0\nsamples = 5\nvalue = [7, 0]\nclass = 0", fillcolor="#e58139"] ;
470 -> 471 ;
472 [label="gini = 0.0\nsamples = 2\nvalue = [0, 3]\nclass = 1", fillcolor="#399de5"] ;
470 -> 472 ;
473 [label="gini = 0.0\nsamples = 3\nvalue = [11, 0]\nclass = 0", fillcolor="#e58139"] ;
459 -> 473 ;
474 [label="gini = 0.0\nsamples = 4\nvalue = [0, 4]\nclass = 1", fillcolor="#399de5"] ;
458 -> 474 ;
475 [label="CreditScoreGivenAge <= -1.16\ngini = 0.13\nsamples = 17\nvalue = [26, 2]\nclass = 0", fillcolor="#e78b48"] ;
337 -> 475 ;
476 [label="Tenure <= 0.0\ngini = 0.5\nsamples = 2\nvalue = [2, 2]\nclass = 0", fillcolor="#ffffff"] ;
475 -> 476 ;
477 [label="gini = 0.0\nsamples = 1\nvalue = [2, 0]\nclass = 0", fillcolor="#e58139"] ;
476 -> 477 ;
478 [label="gini = 0.0\nsamples = 1\nvalue = [0, 2]\nclass = 1", fillcolor="#399de5"] ;
476 -> 478 ;
479 [label="gini = 0.0\nsamples = 15\nvalue = [24, 0]\nclass = 0", fillcolor="#e58139"] ;
475 -> 479 ;
480 [label="Tenure <= -0.74\ngini = 0.24\nsamples = 28\nvalue = [7, 43]\nclass = 1", fillcolor="#59ade9"] ;
222 -> 480 ;
481 [label="TenureByAge <= -0.87\ngini = 0.24\nsamples = 3\nvalue = [6, 1]\nclass = 0", fillcolor="#e9965a"] ;
480 -> 481 ;
482 [label="gini = 0.0\nsamples = 1\nvalue = [0, 1]\nclass = 1", fillcolor="#399de5"] ;
481 -> 482 ;
483 [label="gini = 0.0\nsamples = 2\nvalue = [6, 0]\nclass = 0", fillcolor="#e58139"] ;
481 -> 483 ;
484 [label="BalanceSalaryRatio <= 15.09\ngini = 0.05\nsamples = 25\nvalue = [1, 42]\nclass = 1", fillcolor="#3e9fe6"] ;
480 -> 484 ;
485 [label="gini = 0.0\nsamples = 23\nvalue = [0, 41]\nclass = 1", fillcolor="#399de5"] ;
484 -> 485 ;
486 [label="Age <= 0.39\ngini = 0.5\nsamples = 2\nvalue = [1, 1]\nclass = 0", fillcolor="#ffffff"] ;
484 -> 486 ;
487 [label="gini = 0.0\nsamples = 1\nvalue = [1, 0]\nclass = 0", fillcolor="#e58139"] ;
486 -> 487 ;
488 [label="gini = 0.0\nsamples = 1\nvalue = [0, 1]\nclass = 1", fillcolor="#399de5"] ;
486 -> 488 ;
}