digraph Tree {
node [shape=box, fontname="helvetica"] ;
edge [fontname="helvetica"] ;
0 [label="oldpeak <= 0.75\ngini = 0.492\nsamples = 133\nvalue = [117, 91]\nclass = 0"] ;
1 [label="cp <= 3.5\ngini = 0.407\nsamples = 83\nvalue = [98, 39]\nclass = 0"] ;
0 -> 1 [labeldistance=2.5, labelangle=45, headlabel="True"] ;
2 [label="trestbps <= 117.5\ngini = 0.295\nsamples = 54\nvalue = [73, 16]\nclass = 0"] ;
1 -> 2 ;
3 [label="sex <= 0.5\ngini = 0.473\nsamples = 8\nvalue = [8, 5]\nclass = 0"] ;
2 -> 3 ;
4 [label="gini = 0.0\nsamples = 4\nvalue = [5, 0]\nclass = 0"] ;
3 -> 4 ;
5 [label="chol <= 241.0\ngini = 0.469\nsamples = 4\nvalue = [3, 5]\nclass = 1"] ;
3 -> 5 ;
6 [label="gini = 0.0\nsamples = 2\nvalue = [3, 0]\nclass = 0"] ;
5 -> 6 ;
7 [label="gini = 0.0\nsamples = 2\nvalue = [0, 5]\nclass = 1"] ;
5 -> 7 ;
8 [label="exang <= 0.5\ngini = 0.248\nsamples = 46\nvalue = [65, 11]\nclass = 0"] ;
2 -> 8 ;
9 [label="fbs <= 0.5\ngini = 0.214\nsamples = 44\nvalue = [65, 9]\nclass = 0"] ;
8 -> 9 ;
10 [label="cp <= 1.5\ngini = 0.14\nsamples = 40\nvalue = [61, 5]\nclass = 0"] ;
9 -> 10 ;
11 [label="trestbps <= 155.0\ngini = 0.48\nsamples = 3\nvalue = [2, 3]\nclass = 1"] ;
10 -> 11 ;
12 [label="gini = 0.0\nsamples = 2\nvalue = [0, 3]\nclass = 1"] ;
11 -> 12 ;
13 [label="gini = 0.0\nsamples = 1\nvalue = [2, 0]\nclass = 0"] ;
11 -> 13 ;
14 [label="cp <= 2.5\ngini = 0.063\nsamples = 37\nvalue = [59, 2]\nclass = 0"] ;
10 -> 14 ;
15 [label="gini = 0.0\nsamples = 23\nvalue = [38, 0]\nclass = 0"] ;
14 -> 15 ;
16 [label="random <= 0.639\ngini = 0.159\nsamples = 14\nvalue = [21, 2]\nclass = 0"] ;
14 -> 16 ;
17 [label="gini = 0.0\nsamples = 9\nvalue = [17, 0]\nclass = 0"] ;
16 -> 17 ;
18 [label="chol <= 366.5\ngini = 0.444\nsamples = 5\nvalue = [4, 2]\nclass = 0"] ;
16 -> 18 ;
19 [label="restecg <= 0.5\ngini = 0.32\nsamples = 4\nvalue = [4, 1]\nclass = 0"] ;
18 -> 19 ;
20 [label="gini = 0.0\nsamples = 3\nvalue = [4, 0]\nclass = 0"] ;
19 -> 20 ;
21 [label="gini = 0.0\nsamples = 1\nvalue = [0, 1]\nclass = 1"] ;
19 -> 21 ;
22 [label="gini = 0.0\nsamples = 1\nvalue = [0, 1]\nclass = 1"] ;
18 -> 22 ;
23 [label="restecg <= 0.5\ngini = 0.5\nsamples = 4\nvalue = [4, 4]\nclass = 0"] ;
9 -> 23 ;
24 [label="trestbps <= 137.5\ngini = 0.444\nsamples = 3\nvalue = [4, 2]\nclass = 0"] ;
23 -> 24 ;
25 [label="gini = 0.0\nsamples = 1\nvalue = [0, 2]\nclass = 1"] ;
24 -> 25 ;
26 [label="gini = 0.0\nsamples = 2\nvalue = [4, 0]\nclass = 0"] ;
24 -> 26 ;
27 [label="gini = 0.0\nsamples = 1\nvalue = [0, 2]\nclass = 1"] ;
23 -> 27 ;
28 [label="gini = 0.0\nsamples = 2\nvalue = [0, 2]\nclass = 1"] ;
8 -> 28 ;
29 [label="restecg <= 0.5\ngini = 0.499\nsamples = 29\nvalue = [25, 23]\nclass = 0"] ;
1 -> 29 ;
30 [label="sex <= 0.5\ngini = 0.497\nsamples = 25\nvalue = [19, 22]\nclass = 1"] ;
29 -> 30 ;
31 [label="gini = 0.0\nsamples = 2\nvalue = [5, 0]\nclass = 0"] ;
30 -> 31 ;
32 [label="random <= 0.401\ngini = 0.475\nsamples = 23\nvalue = [14, 22]\nclass = 1"] ;
30 -> 32 ;
33 [label="fbs <= 0.5\ngini = 0.18\nsamples = 6\nvalue = [9, 1]\nclass = 0"] ;
32 -> 33 ;
34 [label="gini = 0.0\nsamples = 5\nvalue = [9, 0]\nclass = 0"] ;
33 -> 34 ;
35 [label="gini = 0.0\nsamples = 1\nvalue = [0, 1]\nclass = 1"] ;
33 -> 35 ;
36 [label="age <= 56.0\ngini = 0.311\nsamples = 17\nvalue = [5, 21]\nclass = 1"] ;
32 -> 36 ;
37 [label="random <= 0.503\ngini = 0.278\nsamples = 15\nvalue = [4, 20]\nclass = 1"] ;
36 -> 37 ;
38 [label="chol <= 319.0\ngini = 0.48\nsamples = 4\nvalue = [2, 3]\nclass = 1"] ;
37 -> 38 ;
39 [label="gini = 0.0\nsamples = 3\nvalue = [0, 3]\nclass = 1"] ;
38 -> 39 ;
40 [label="gini = 0.0\nsamples = 1\nvalue = [2, 0]\nclass = 0"] ;
38 -> 40 ;
41 [label="thalach <= 133.5\ngini = 0.188\nsamples = 11\nvalue = [2, 17]\nclass = 1"] ;
37 -> 41 ;
42 [label="age <= 50.0\ngini = 0.444\nsamples = 3\nvalue = [2, 1]\nclass = 0"] ;
41 -> 42 ;
43 [label="gini = 0.0\nsamples = 2\nvalue = [2, 0]\nclass = 0"] ;
42 -> 43 ;
44 [label="gini = 0.0\nsamples = 1\nvalue = [0, 1]\nclass = 1"] ;
42 -> 44 ;
45 [label="gini = 0.0\nsamples = 8\nvalue = [0, 16]\nclass = 1"] ;
41 -> 45 ;
46 [label="thalach <= 107.5\ngini = 0.5\nsamples = 2\nvalue = [1, 1]\nclass = 0"] ;
36 -> 46 ;
47 [label="gini = 0.0\nsamples = 1\nvalue = [1, 0]\nclass = 0"] ;
46 -> 47 ;
48 [label="gini = 0.0\nsamples = 1\nvalue = [0, 1]\nclass = 1"] ;
46 -> 48 ;
49 [label="restecg <= 1.5\ngini = 0.245\nsamples = 4\nvalue = [6, 1]\nclass = 0"] ;
29 -> 49 ;
50 [label="gini = 0.0\nsamples = 3\nvalue = [6, 0]\nclass = 0"] ;
49 -> 50 ;
51 [label="gini = 0.0\nsamples = 1\nvalue = [0, 1]\nclass = 1"] ;
49 -> 51 ;
52 [label="sex <= 0.5\ngini = 0.392\nsamples = 50\nvalue = [19, 52]\nclass = 1"] ;
0 -> 52 [labeldistance=2.5, labelangle=-45, headlabel="False"] ;
53 [label="thalach <= 115.0\ngini = 0.5\nsamples = 11\nvalue = [8, 8]\nclass = 0"] ;
52 -> 53 ;
54 [label="random <= 0.477\ngini = 0.278\nsamples = 4\nvalue = [1, 5]\nclass = 1"] ;
53 -> 54 ;
55 [label="thalach <= 104.0\ngini = 0.5\nsamples = 2\nvalue = [1, 1]\nclass = 0"] ;
54 -> 55 ;
56 [label="gini = 0.0\nsamples = 1\nvalue = [1, 0]\nclass = 0"] ;
55 -> 56 ;
57 [label="gini = 0.0\nsamples = 1\nvalue = [0, 1]\nclass = 1"] ;
55 -> 57 ;
58 [label="gini = 0.0\nsamples = 2\nvalue = [0, 4]\nclass = 1"] ;
54 -> 58 ;
59 [label="trestbps <= 104.0\ngini = 0.42\nsamples = 7\nvalue = [7, 3]\nclass = 0"] ;
53 -> 59 ;
60 [label="gini = 0.0\nsamples = 1\nvalue = [0, 2]\nclass = 1"] ;
59 -> 60 ;
61 [label="exang <= 0.5\ngini = 0.219\nsamples = 6\nvalue = [7, 1]\nclass = 0"] ;
59 -> 61 ;
62 [label="gini = 0.0\nsamples = 3\nvalue = [5, 0]\nclass = 0"] ;
61 -> 62 ;
63 [label="age <= 56.0\ngini = 0.444\nsamples = 3\nvalue = [2, 1]\nclass = 0"] ;
61 -> 63 ;
64 [label="gini = 0.0\nsamples = 1\nvalue = [1, 0]\nclass = 0"] ;
63 -> 64 ;
65 [label="age <= 60.0\ngini = 0.5\nsamples = 2\nvalue = [1, 1]\nclass = 0"] ;
63 -> 65 ;
66 [label="gini = 0.0\nsamples = 1\nvalue = [0, 1]\nclass = 1"] ;
65 -> 66 ;
67 [label="gini = 0.0\nsamples = 1\nvalue = [1, 0]\nclass = 0"] ;
65 -> 67 ;
68 [label="thalach <= 126.5\ngini = 0.32\nsamples = 39\nvalue = [11, 44]\nclass = 1"] ;
52 -> 68 ;
69 [label="trestbps <= 127.0\ngini = 0.074\nsamples = 19\nvalue = [1, 25]\nclass = 1"] ;
68 -> 69 ;
70 [label="thalach <= 115.0\ngini = 0.32\nsamples = 4\nvalue = [1, 4]\nclass = 1"] ;
69 -> 70 ;
71 [label="age <= 52.5\ngini = 0.5\nsamples = 2\nvalue = [1, 1]\nclass = 0"] ;
70 -> 71 ;
72 [label="gini = 0.0\nsamples = 1\nvalue = [0, 1]\nclass = 1"] ;
71 -> 72 ;
73 [label="gini = 0.0\nsamples = 1\nvalue = [1, 0]\nclass = 0"] ;
71 -> 73 ;
74 [label="gini = 0.0\nsamples = 2\nvalue = [0, 3]\nclass = 1"] ;
70 -> 74 ;
75 [label="gini = 0.0\nsamples = 15\nvalue = [0, 21]\nclass = 1"] ;
69 -> 75 ;
76 [label="random <= 0.878\ngini = 0.452\nsamples = 20\nvalue = [10, 19]\nclass = 1"] ;
68 -> 76 ;
77 [label="oldpeak <= 1.25\ngini = 0.393\nsamples = 19\nvalue = [7, 19]\nclass = 1"] ;
76 -> 77 ;
78 [label="trestbps <= 125.0\ngini = 0.494\nsamples = 8\nvalue = [5, 4]\nclass = 0"] ;
77 -> 78 ;
79 [label="gini = 0.0\nsamples = 2\nvalue = [2, 0]\nclass = 0"] ;
78 -> 79 ;
80 [label="random <= 0.297\ngini = 0.49\nsamples = 6\nvalue = [3, 4]\nclass = 1"] ;
78 -> 80 ;
81 [label="gini = 0.0\nsamples = 2\nvalue = [0, 2]\nclass = 1"] ;
80 -> 81 ;
82 [label="chol <= 268.0\ngini = 0.48\nsamples = 4\nvalue = [3, 2]\nclass = 0"] ;
80 -> 82 ;
83 [label="gini = 0.0\nsamples = 2\nvalue = [0, 2]\nclass = 1"] ;
82 -> 83 ;
84 [label="gini = 0.0\nsamples = 2\nvalue = [3, 0]\nclass = 0"] ;
82 -> 84 ;
85 [label="exang <= 0.5\ngini = 0.208\nsamples = 11\nvalue = [2, 15]\nclass = 1"] ;
77 -> 85 ;
86 [label="cp <= 1.5\ngini = 0.444\nsamples = 3\nvalue = [2, 4]\nclass = 1"] ;
85 -> 86 ;
87 [label="gini = 0.0\nsamples = 1\nvalue = [2, 0]\nclass = 0"] ;
86 -> 87 ;
88 [label="gini = 0.0\nsamples = 2\nvalue = [0, 4]\nclass = 1"] ;
86 -> 88 ;
89 [label="gini = 0.0\nsamples = 8\nvalue = [0, 11]\nclass = 1"] ;
85 -> 89 ;
90 [label="gini = 0.0\nsamples = 1\nvalue = [3, 0]\nclass = 0"] ;
76 -> 90 ;
}